svm_type c_svc
kernel_type rbf
gamma 29
nr_class 3
total_sv 41
rho -0.37791065855597661 0.41693559811953901 0.17376436726727362
label 2 1 17
nr_sv 19 12 10
SV
0 18.611963763372533 1:0.0054 2:0 3:0.000175 4:0.0002 5:0 6:0 7:0.000175 8:0.000575 9:0.0002 10:0.000225 11:0 12:0.001 13:0 14:0 15:0 16:0.0011 17:0.000325 18:0 19:0 20:2.5e-05 21:0.000625 22:0 23:0.0007 24:0.001875 25:2.5e-05 26:0 27:0 28:0 29:0 30:2.5e-05 31:0 32:0.00045 33:5e-05 34:0 35:0 36:0 37:0 38:0 39:2.5e-05 40:0 41:0.000275 42:0.001025 43:5e-05 44:0.0018 45:0 46:0 47:2.5e-05 48:0.000525 49:0 50:0 51:0 52:0 53:5e-05 54:0 55:2.5e-05 56:0 57:2.5e-05 58:0 59:0 60:0 61:2.5e-05 62:0 63:0 64:0.00015 65:0.000475 66:2.5e-05 67:0 68:5e-05 69:0 70:0 71:0 72:0 73:0 74:0 75:0 76:0 77:0 78:0 79:0 80:0 81:5e-05 82:0 83:0 84:0 85:0 86:0 87:0 88:0 89:0 90:0 91:0 92:0 93:0 94:0 95:0 96:0 97:0.000725 98:0 99:2.5e-05 100:0 101:0 102:0 103:0 104:0 105:0.00245 106:0.00375 107:0 108:0.0008 109:2.5e-05 110:0 111:2.5e-05 112:0.0001 113:0 114:0 115:0 116:0 117:2.5e-05 118:0 119:0 120:0 121:0 122:0 123:0 124:0 125:0 126:0 127:0 128:0 129:0 130:0 131:0 132:0 133:0 134:0 135:0 136:0 137:2.5e-05 138:5e-05 139:0 140:2.5e-05 141:0 142:0 143:0 144:2.5e-05 145:0.000225 146:2.5e-05 147:0 148:7.5e-05 149:0.000925 150:0 151:0.00215 152:0.000725 153:0 154:5e-05 155:0 156:2.5e-05 157:0 158:0 159:0 160:0.000175 161:0 162:0 163:0 164:0 165:0 166:0 167:0 168:0 169:0 170:0 171:0 172:0 173:0 174:0 175:0 176:0 177:0 178:0 179:0 180:0 181:0 182:0 183:2.5e-05 184:0 185:0 186:0 187:0 188:0 189:0 190:0 191:0 192:7.5e-05 193:0.0003 194:2.5e-05 195:2.5e-05 196:2.5e-05 197:0 198:0 199:2.5e-05 200:0 201:2.5e-05 202:2.5e-05 203:0 204:0 205:0 206:0 207:0 208:0 209:0.002375 210:2.5e-05 211:2.5e-05 212:0 213:0.004925 214:5e-05 215:0.000975 216:0.00015 217:0 218:2.5e-05 219:0 220:2.5e-05 221:0 222:0 223:0 224:2.5e-05 225:0.00145 226:0 227:2.5e-05 228:0 229:0 230:0 231:0 232:2.5e-05 233:0.004775 234:0.0023 235:0 236:0.000175 237:0 238:0 239:0 240:0.000125 241:0.0076 242:0 243:0 244:0 245:0.002775 246:5e-05 247:0.000575 248:2.5e-05 249:0.00195 250:0.00045 251:0 252:2.5e-05 253:0.0004 254:0.000175 255:2.5e-05 256:0.00025 257:0.005125 258:0 259:0.0001 260:5e-05 261:2.5e-05 262:0 263:5e-05 264:0.00015 265:0.0004 266:0.00035 267:2.5e-05 268:7.5e-05 269:0 270:0 271:0 272:0.0007 273:0.00025 274:0 275:0 276:0 277:7.5e-05 278:0 279:0 280:0.00035 281:0.0001 282:0 283:0 284:0 285:0 286:0 287:0 288:0.00015 289:0 290:0 291:0 292:0 293:0 294:0 295:0 296:0 297:0.0001 298:0.000725 299:0 300:0.0012 301:0 302:0 303:0 304:7.5e-05 305:2.5e-05 306:0 307:0 308:0 309:0 310:0 311:0 312:0 313:0 314:0 315:0 316:0 317:2.5e-05 318:0 319:2.5e-05 320:2.5e-05 321:0.000175 322:0 323:2.5e-05 324:0 325:0 326:0 327:0 328:0 329:0 330:2.5e-05 331:0 332:0 333:0 334:0 335:0 336:0 337:0 338:0 339:0 340:0 341:0 342:0 343:0 344:0 345:0 346:0 347:0 348:0 349:0 350:0 351:0 352:0 353:0.00035 354:0 355:2.5e-05 356:0 357:0 358:0 359:0 360:0 361:0.00335 362:0.005775 363:0 364:0.0007 365:2.5e-05 366:0 367:0 368:7.5e-05 369:0 370:0 371:0 372:0 373:0 374:0 375:2.5e-05 376:0 377:0 378:0 379:0 380:0 381:0 382:0 383:0 384:2.5e-05 385:0 386:0 387:0 388:0 389:0 390:0 391:0 392:0 393:0 394:0 395:0 396:2.5e-05 397:0 398:0 399:0 400:0 401:0 402:0 403:0 404:0 405:0.0001 406:0 407:2.5e-05 408:0 409:0 410:0 411:0 412:0 413:0 414:0 415:0 416:5e-05 417:0 418:0 419:0 420:0 421:0 422:0 423:2.5e-05 424:0 425:0 426:0 427:0 428:2.5e-05 429:0 430:0 431:0 432:2.5e-05 433:0 434:0 435:0 436:0 437:2.5e-05 438:0 439:0 440:0 441:0 442:2.5e-05 443:0 444:0 445:0 446:5e-05 447:0 448:2.5e-05 449:0.000175 450:0 451:0 452:0 453:0 454:0 455:0 456:0 457:0 458:0 459:0 460:2.5e-05 461:0 462:0 463:0 464:0 465:0.00245 466:2.5e-05 467:0 468:0 469:0.0051 470:0 471:0.0001 472:0 473:0 474:2.5e-05 475:0 476:0 477:0 478:0 479:0 480:2.5e-05 481:0.002925 482:0 483:0 484:0 485:0 486:0 487:0 488:0 489:0.0096 490:0.003025 491:0 492:0.000125 493:2.5e-05 494:0 495:0 496:5e-05 497:0.01085 498:0 499:0 500:0 501:0.002425 502:0 503:0 504:0 505:0.003025 506:0.0006 507:2.5e-05 508:2.5e-05 509:0.0004 510:0.000175 511:2.5e-05 512:0.000125 513:0.005125 514:0 515:7.5e-05 516:2.5e-05 517:7.5e-05 518:0 519:7.5e-05 520:0.000275 521:2.5e-05 522:0.00025 523:0 524:0.000375 525:0 526:0 527:0 528:0.0005 529:0.000175 530:0 531:2.5e-05 532:0 533:0.00025 534:0 535:0.00025 536:0.0005 537:2.5e-05 538:2.5e-05 539:0 540:0 541:5e-05 542:2.5e-05 543:0 544:0.00025 545:2.5e-05 546:0 547:2.5e-05 548:0 549:0 550:0 551:0 552:0 553:0.000175 554:0.0007 555:5e-05 556:0.002125 557:0 558:0 559:2.5e-05 560:0.00025 561:0 562:0 563:0 564:0 565:0 566:0 567:0 568:0 569:0 570:0 571:0 572:0 573:0 574:0 575:0 576:5e-05 577:2.5e-05 578:0 579:2.5e-05 580:0 581:0 582:0 583:0 584:0 585:2.5e-05 586:0 587:0 588:0 589:0 590:0 591:0 592:0 593:0 594:0 595:0 596:0 597:2.5e-05 598:0 599:0 600:0 601:0 602:0 603:0 604:0 605:0 606:0 607:0 608:0 609:0.0003 610:0 611:0 612:0 613:0 614:0 615:0 616:0 617:0.00285 618:0.005925 619:0 620:0.000725 621:0 622:0 623:0 624:5e-05 625:0 626:0 627:0 628:0 629:2.5e-05 630:0 631:0 632:0 633:0 634:0 635:0 636:0 637:0 638:0 639:0 640:0 641:7.5e-05 642:2.5e-05 643:0 644:0 645:0 646:0 647:0 648:0 649:0 650:0 651:0 652:0 653:0 654:0 655:0 656:0 657:5e-05 658:0 659:2.5e-05 660:2.5e-05 661:0.000125 662:0 663:0.00025 664:7.5e-05 665:0 666:5e-05 667:0 668:0 669:0 670:0 671:0 672:2.5e-05 673:0 674:0 675:0 676:0 677:0 678:0 679:0 680:0 681:0 682:0 683:0 684:2.5e-05 685:0 686:0 687:0 688:0 689:0 690:0 691:0 692:0 693:0 694:0 695:0 696:0 697:0 698:0 699:0 700:0 701:0 702:0 703:0 704:0 705:5e-05 706:0 707:0 708:0 709:0 710:0 711:0 712:0 713:0 714:0 715:0 716:0 717:0 718:0 719:0 720:0 721:0.00175 722:2.5e-05 723:2.5e-05 724:0 725:0.002925 726:2.5e-05 727:5e-05 728:0 729:0 730:0 731:0 732:0 733:0 734:0 735:0 736:0 737:0.00255 738:0 739:0 740:0 741:0 742:0 743:0 744:0 745:0.009175 746:0.002275 747:0 748:0.00025 749:0 750:0 751:0 752:0 753:0.0165 754:2.5e-05 755:0 756:0 757:0.001475 758:2.5e-05 759:5e-05 760:2.5e-05 761:0.001625 762:0.000775 763:0 764:0.0001 765:0.0001 766:0.0001 767:0 768:7.5e-05 769:0.0052 770:0 771:0.000175 772:0.00015 773:0 774:0 775:0.00025 776:0.00115 777:0.0003 778:0.00025 779:0 780:0.0023 781:0 782:0 783:0 784:0.013825 785:5e-05 786:0 787:0 788:0 789:0.00015 790:0 791:0.00065 792:0.002475 793:0 794:5e-05 795:0 796:0 797:5e-05 798:0 799:0 800:0.001 801:0 802:0 803:0 804:0 805:0 806:0 807:0 808:0 809:0.00015 810:0.00085 811:2.5e-05 812:0.0056 813:0 814:0 815:0 816:0.002275 817:0 818:0 819:0 820:0 821:0 822:0 823:0 824:0 825:2.5e-05 826:0 827:0 828:0 829:0 830:0 831:0 832:2.5e-05 833:0.0002 834:0 835:5e-05 836:0 837:0 838:0 839:0 840:0 841:0 842:0 843:0 844:0 845:0 846:0 847:0 848:0 849:0 850:0 851:0 852:0 853:0 854:0 855:0 856:0 857:0 858:0 859:0 860:0 861:0 862:0 863:0 864:0 865:0.0001 866:0 867:0 868:0 869:2.5e-05 870:0 871:0 872:2.5e-05 873:0.00105 874:0.001225 875:0 876:0.0005 877:2.5e-05 878:0 879:0 880:0.000275 881:0 882:0 883:0 884:0 885:0 886:0 887:2.5e-05 888:0 889:0 890:0 891:0 892:0 893:0 894:0 895:0 896:0 897:2.5e-05 898:0 899:0 900:0 901:0 902:0 903:0 904:0 905:0 906:0 907:0 908:5e-05 909:0 910:0 911:0 912:0 913:0.00015 914:2.5e-05 915:2.5e-05 916:0 917:0.000425 918:0 919:0.0015 920:0.0004 921:0 922:0 923:0 924:2.5e-05 925:0 926:0 927:0 928:0.00015 929:0 930:0 931:0 932:0 933:0 934:0 935:0 936:0 937:0 938:2.5e-05 939:0 940:0 941:0 942:0 943:0 944:7.5e-05 945:0 946:0 947:0 948:0 949:0 950:0 951:0 952:0 953:0 954:2.5e-05 955:0 956:0 957:2.5e-05 958:0 959:0 960:7.5e-05 961:0.00025 962:0 963:2.5e-05 964:0 965:0 966:0 967:0 968:2.5e-05 969:2.5e-05 970:0 971:0 972:2.5e-05 973:0 974:0 975:0 976:0 977:0.00155 978:2.5e-05 979:0 980:2.5e-05 981:0.001975 982:0 983:0.0003 984:0.0002 985:0 986:0 987:0 988:2.5e-05 989:0 990:0 991:0 992:0 993:0.001525 994:0 995:0 996:0 997:0 998:0 999:0 1000:5e-05 1001:0.004625 1002:0.000525 1003:0 1004:0.00035 1005:0 1006:0 1007:0 1008:0.0001 1009:0.0032 1010:5e-05 1011:0 1012:0 1013:0.00145 1014:2.5e-05 1015:0.000275 1016:0.0001 1017:0.0014 1018:0.00035 1019:0 1020:0.000125 1021:0.000125 1022:5e-05 1023:0 1024:0.00025 1025:0.00535 1026:0 1027:0.0002 1028:0.0001 1029:2.5e-05 1030:0 1031:0.000225 1032:0.000175 1033:5e-05 1034:0.0001 1035:0 1036:0.000325 1037:0 1038:0 1039:0 1040:0.0005 1041:0.000125 1042:0 1043:0 1044:0 1045:0.00015 1046:0 1047:0.000525 1048:0.00035 1049:2.5e-05 1050:0 1051:0 1052:2.5e-05 1053:0 1054:0 1055:0 1056:0.00025 1057:0 1058:0 1059:0 1060:0 1061:0 1062:0 1063:2.5e-05 1064:0 1065:0.00015 1066:0.000675 1067:5e-05 1068:0.0012 1069:2.5e-05 1070:2.5e-05 1071:0 1072:0.0004 1073:0 1074:0 1075:0 1076:0 1077:0 1078:0 1079:2.5e-05 1080:2.5e-05 1081:0 1082:0 1083:0 1084:0 1085:0 1086:0 1087:0 1088:5e-05 1089:0.000375 1090:0 1091:2.5e-05 1092:2.5e-05 1093:2.5e-05 1094:0 1095:2.5e-05 1096:0 1097:2.5e-05 1098:0 1099:0 1100:0 1101:0 1102:0 1103:0 1104:0 1105:0 1106:0 1107:0 1108:0 1109:2.5e-05 1110:0 1111:2.5e-05 1112:0 1113:0 1114:0 1115:0 1116:0 1117:0 1118:0 1119:0 1120:0 1121:0.0007 1122:0 1123:2.5e-05 1124:0 1125:5e-05 1126:0 1127:2.5e-05 1128:0 1129:0.003025 1130:0.00625 1131:0 1132:0.00075 1133:2.5e-05 1134:0 1135:2.5e-05 1136:0.0001 1137:0 1138:0 1139:0 1140:0 1141:2.5e-05 1142:0 1143:2.5e-05 1144:2.5e-05 1145:2.5e-05 1146:0 1147:0 1148:0 1149:2.5e-05 1150:0 1151:0 1152:0 1153:5e-05 1154:0 1155:5e-05 1156:2.5e-05 1157:0 1158:0 1159:0 1160:0 1161:0 1162:0 1163:0 1164:5e-05 1165:0 1166:0 1167:0 1168:0 1169:0.000325 1170:0 1171:0 1172:2.5e-05 1173:0.0011 1174:2.5e-05 1175:0.00255 1176:0.000625 1177:0 1178:0 1179:0 1180:5e-05 1181:2.5e-05 1182:0 1183:0 1184:0.00025 1185:0 1186:0 1187:0 1188:0 1189:0 1190:0 1191:0 1192:0 1193:0 1194:2.5e-05 1195:0 1196:0 1197:0 1198:0 1199:0 1200:2.5e-05 1201:0 1202:0 1203:0 1204:0 1205:2.5e-05 1206:0 1207:0 1208:0 1209:2.5e-05 1210:0 1211:0 1212:0 1213:0 1214:0 1215:2.5e-05 1216:0.000125 1217:0.000275 1218:0 1219:5e-05 1220:0 1221:0 1222:0 1223:0 1224:0 1225:2.5e-05 1226:7.5e-05 1227:0 1228:0 1229:0 1230:0 1231:0 1232:0 1233:0.002225 1234:5e-05 1235:2.5e-05 1236:0 1237:0.005175 1238:0 1239:0.00105 1240:0.000125 1241:0 1242:0 1243:0 1244:0 1245:0 1246:0 1247:0 1248:0 1249:0.002725 1250:0 1251:0 1252:0 1253:5e-05 1254:0 1255:2.5e-05 1256:7.5e-05 1257:0.007225 1258:0.00205 1259:2.5e-05 1260:0.00015 1261:0 1262:0 1263:0 1264:0.0002 1265:0.00685 1266:0 1267:2.5e-05 1268:0 1269:0.0015 1270:0 1271:0.0002 1272:0.000125 1273:0.002225 1274:0.00075 1275:0 1276:2.5e-05 1277:0.00015 1278:0.00045 1279:2.5e-05 1280:0.000375 1281:0.00525 1282:0 1283:0.0002 1284:7.5e-05 1285:2.5e-05 1286:0 1287:0.0002 1288:0.000975 1289:7.5e-05 1290:0.000175 1291:0 1292:0.0013 1293:0 1294:0 1295:2.5e-05 1296:0.0055 1297:7.5e-05 1298:0 1299:0 1300:0 1301:0.000275 1302:0 1303:0.00105 1304:0.000925 1305:0 1306:0 1307:0 1308:0 1309:2.5e-05 1310:0 1311:0 1312:0.000725 1313:7.5e-05 1314:0 1315:0 1316:0 1317:2.5e-05 1318:0 1319:0 1320:0 1321:0.000475 1322:0.0008 1323:2.5e-05 1324:0.0024 1325:0 1326:0 1327:5e-05 1328:0.0014 1329:0 1330:0 1331:0 1332:0 1333:7.5e-05 1334:0 1335:0 1336:0 1337:2.5e-05 1338:0 1339:0 1340:2.5e-05 1341:5e-05 1342:0 1343:0 1344:0.000175 1345:0.000175 1346:0 1347:0 1348:2.5e-05 1349:2.5e-05 1350:0 1351:0 1352:0 1353:0 1354:2.5e-05 1355:0 1356:0 1357:0 1358:0 1359:0 1360:0 1361:0 1362:0 1363:0 1364:0 1365:0 1366:0 1367:5e-05 1368:0 1369:0 1370:0 1371:0 1372:0 1373:0 1374:0 1375:0 1376:0 1377:0.000475 1378:0 1379:0 1380:2.5e-05 1381:5e-05 1382:0 1383:2.5e-05 1384:0 1385:0.001275 1386:0.0014 1387:5e-05 1388:0.000875 1389:0 1390:0 1391:2.5e-05 1392:0.0001 1393:5e-05 1394:0 1395:0 1396:0 1397:0 1398:0 1399:0 1400:0 1401:2.5e-05 1402:0 1403:0 1404:0 1405:0 1406:0 1407:0 1408:2.5e-05 1409:2.5e-05 1410:0 1411:0 1412:0 1413:0 1414:0 1415:0 1416:2.5e-05 1417:0 1418:0 1419:0 1420:7.5e-05 1421:0 1422:0 1423:0 1424:7.5e-05 1425:0.000175 1426:0 1427:0 1428:5e-05 1429:0.000975 1430:2.5e-05 1431:0.0025 1432:0.00065 1433:0 1434:0 1435:0 1436:2.5e-05 1437:0 1438:0 1439:0 1440:0.00015 1441:0 1442:0 1443:0 1444:0 1445:0 1446:0 1447:0 1448:0 1449:0 1450:0 1451:0 1452:0 1453:0 1454:0 1455:0 1456:7.5e-05 1457:0 1458:0 1459:0 1460:0 1461:0 1462:0 1463:0 1464:2.5e-05 1465:0 1466:0 1467:0 1468:0 1469:0 1470:0 1471:0 1472:7.5e-05 1473:0.000325 1474:2.5e-05 1475:0 1476:5e-05 1477:0 1478:0 1479:0 1480:2.5e-05 1481:2.5e-05 1482:2.5e-05 1483:0 1484:2.5e-05 1485:0 1486:0 1487:0 1488:5e-05 1489:0.00275 1490:0.000125 1491:0 1492:2.5e-05 1493:0.00675 1494:2.5e-05 1495:0.0009 1496:0.000425 1497:0 1498:0 1499:0 1500:7.5e-05 1501:2.5e-05 1502:0 1503:0 1504:0.000125 1505:0.001025 1506:0 1507:0 1508:2.5e-05 1509:2.5e-05 1510:0 1511:0 1512:5e-05 1513:0.0012 1514:0.001 1515:0 1516:0.000425 1517:0 1518:0 1519:0 1520:0.000225 1521:0.00865 1522:0.000125 1523:0 1524:2.5e-05 1525:0.002825 1526:0.0001 1527:0.0001 1528:0.0003 1529:0.00085 1530:0.000575 1531:0 1532:0.0001 1533:0.00025 1534:0.000225 1535:0 1536:0.000525 1537:0.0052 1538:2.5e-05 1539:0.0001 1540:0.000225 1541:5e-05 1542:0 1543:0.0004 1544:0.001325 1545:7.5e-05 1546:0.000175 1547:0 1548:0.002175 1549:0 1550:0 1551:2.5e-05 1552:0.006275 1553:0 1554:0 1555:0 1556:0 1557:0.000225 1558:0 1559:0.001625 1560:0.00335 1561:0 1562:0 1563:0 1564:0 1565:2.5e-05 1566:0 1567:0 1568:0.000625 1569:2.5e-05 1570:0 1571:0 1572:0 1573:0 1574:0 1575:2.5e-05 1576:2.5e-05 1577:0.00025 1578:0.00095 1579:2.5e-05 1580:0.00615 1581:0 1582:0 1583:2.5e-05 1584:0.00155 1585:0 1586:0 1587:0 1588:0 1589:2.5e-05 1590:0 1591:0 1592:2.5e-05 1593:0 1594:0 1595:0 1596:0 1597:0 1598:0 1599:0 1600:0.0003 1601:0.000275 1602:0 1603:0 1604:2.5e-05 1605:0 1606:0 1607:0 1608:0 1609:2.5e-05 1610:2.5e-05 1611:0 1612:0 1613:0 1614:0 1615:0 1616:0 1617:5e-05 1618:0 1619:0 1620:0 1621:0 1622:0 1623:0 1624:0 1625:0 1626:0 1627:0 1628:0 1629:0 1630:0 1631:0 1632:0 1633:0.0003 1634:0 1635:2.5e-05 1636:0 1637:2.5e-05 1638:0 1639:2.5e-05 1640:5e-05 1641:0.00165 1642:0.0027 1643:2.5e-05 1644:0.0008 1645:2.5e-05 1646:5e-05 1647:0 1648:0.00015 1649:0 1650:0 1651:0 1652:0 1653:0 1654:0 1655:2.5e-05 1656:0 1657:2.5e-05 1658:0 1659:0 1660:0 1661:5e-05 1662:0 1663:0 1664:5e-05 1665:2.5e-05 1666:0 1667:2.5e-05 1668:0 1669:0 1670:0 1671:0 1672:0 1673:0 1674:2.5e-05 1675:0 1676:2.5e-05 1677:0 1678:0 1679:0 1680:7.5e-05 1681:7.5e-05 1682:2.5e-05 1683:2.5e-05 1684:0 1685:0.000975 1686:0 1687:0.003325 1688:0.001025 1689:0 1690:0 1691:0 1692:0 1693:0 1694:0 1695:0 1696:0.00035 1697:0 1698:0 1699:0 1700:0 1701:0 1702:0 1703:0 1704:0 1705:0 1706:2.5e-05 1707:0 1708:0.000125 1709:0 1710:0 1711:0 1712:2.5e-05 1713:0 1714:0 1715:0 1716:0 1717:0 1718:0 1719:5e-05 1720:0 1721:0 1722:2.5e-05 1723:0 1724:2.5e-05 1725:0 1726:0 1727:0 1728:0.00035 1729:0.00015 1730:0 1731:2.5e-05 1732:0 1733:0 1734:0 1735:0 1736:0 1737:0 1738:2.5e-05 1739:0 1740:5e-05 1741:2.5e-05 1742:0 1743:0 1744:0 1745:0.00165 1746:0 1747:0 1748:0 1749:0.004025 1750:7.5e-05 1751:0.000875 1752:0.000325 1753:2.5e-05 1754:2.5e-05 1755:0 1756:2.5e-05 1757:0 1758:5e-05 1759:0 1760:0.0001 1761:0.00105 1762:0 1763:0 1764:2.5e-05 1765:0 1766:0 1767:0 1768:0 1769:0.0018 1770:0.00085 1771:0 1772:0.00035 1773:0 1774:0 1775:0 1776:5e-05 1777:0.00285 1778:2.5e-05 1779:0 1780:0 1781:0.001475 1782:0 1783:0.00025 1784:0.00015 1785:0.000325 1786:0.0006 1787:0 1788:7.5e-05 1789:0.0002 1790:0.00035 1791:5e-05 1792:0.000325 1793:0.005 1794:0 1795:0.0002 1796:5e-05 1797:0 1798:0 1799:5e-05 1800:0.000225 1801:0 1802:7.5e-05 1803:0 1804:0.000125 1805:0 1806:0 1807:2.5e-05 1808:0.00015 1809:5e-05 1810:0 1811:0 1812:0 1813:0.0001 1814:0 1815:0.001725 1816:0.00705 1817:0 1818:0 1819:0 1820:0 1821:0 1822:2.5e-05 1823:0 1824:0.000275 1825:0 1826:0 1827:0 1828:0 1829:0 1830:0 1831:0 1832:0 1833:0 1834:0.000125 1835:0 1836:0.0007 1837:0 1838:0 1839:5e-05 1840:0.000325 1841:2.5e-05 1842:0 1843:0 1844:0 1845:0 1846:0 1847:2.5e-05 1848:0 1849:0 1850:0 1851:0 1852:0 1853:0 1854:0 1855:0 1856:0.0001 1857:0.000175 1858:0 1859:5e-05 1860:0 1861:0 1862:0 1863:0 1864:0 1865:0 1866:0 1867:0 1868:0 1869:0 1870:0 1871:0 1872:0 1873:0 1874:0 1875:0 1876:0 1877:0 1878:0 1879:0 1880:0 1881:0 1882:0 1883:0 1884:0 1885:0 1886:0 1887:0 1888:0 1889:0 1890:0 1891:0 1892:0 1893:0 1894:0 1895:2.5e-05 1896:0 1897:0.00045 1898:0.00035 1899:0 1900:0.000225 1901:5e-05 1902:0 1903:0 1904:2.5e-05 1905:0 1906:0 1907:0 1908:0 1909:0 1910:0 1911:2.5e-05 1912:0 1913:0 1914:0 1915:0 1916:0 1917:0 1918:0 1919:0 1920:0 1921:0 1922:0 1923:0 1924:0 1925:0 1926:0 1927:0 1928:0 1929:0 1930:0 1931:0 1932:0 1933:0 1934:0 1935:0 1936:0 1937:0.0002 1938:0 1939:0 1940:0 1941:0.001575 1942:0 1943:0.004675 1944:0.0014 1945:2.5e-05 1946:0 1947:0 1948:0 1949:0 1950:0 1951:0 1952:7.5e-05 1953:0 1954:0 1955:0 1956:0 1957:0 1958:0 1959:0 1960:0 1961:0 1962:0 1963:0 1964:0 1965:0 1966:0 1967:0 1968:0 1969:0 1970:0 1971:0 1972:0 1973:0 1974:0 1975:0 1976:0 1977:0 1978:0 1979:0 1980:0 1981:0 1982:0 1983:0 1984:0 1985:0.000525 1986:0 1987:0 1988:2.5e-05 1989:0 1990:0 1991:0 1992:0 1993:0 1994:0 1995:0 1996:0 1997:0 1998:0 1999:0 2000:0 2001:0.003 2002:0 2003:0 2004:0 2005:0.004175 2006:0 2007:0.00125 2008:0.000175 2009:0 2010:0 2011:0 2012:0 2013:0 2014:0 2015:0 2016:0 2017:0.002125 2018:0 2019:0 2020:0 2021:0 2022:0 2023:0 2024:0 2025:0.005675 2026:0.000675 2027:0 2028:0.0001 2029:2.5e-05 2030:0 2031:0 2032:7.5e-05 2033:0.0124 2034:0 2035:0 2036:0 2037:0.00305 2038:0 2039:0.000375 2040:5e-05 2041:0.0024 2042:0.000125 2043:0 2044:0 2045:0.00025 2046:0.0001 2047:2.5e-05 2048:0.0001 2049:0.005075 2050:0 2051:0.000125 2052:0.000425 2053:0 2054:0 2055:0 2056:0.001225 2057:0.0001 2058:0.00025 2059:0 2060:0.003125 2061:2.5e-05 2062:0 2063:2.5e-05 2064:0.013825 2065:0 2066:2.5e-05 2067:0 2068:2.5e-05 2069:0.0001 2070:0 2071:0.0008 2072:0.003425 2073:0 2074:0 2075:0 2076:0 2077:0 2078:0 2079:0 2080:0.0006 2081:5e-05 2082:0 2083:0 2084:0 2085:0 2086:0 2087:0 2088:0 2089:0.000375 2090:0.002175 2091:2.5e-05 2092:0.007975 2093:0 2094:2.5e-05 2095:0 2096:0.001725 2097:0 2098:0 2099:0 2100:0 2101:0 2102:0 2103:2.5e-05 2104:2.5e-05 2105:0 2106:0 2107:0 2108:0 2109:0 2110:0 2111:7.5e-05 2112:0.000575 2113:2.5e-05 2114:0 2115:0 2116:2.5e-05 2117:0 2118:0 2119:0 2120:0 2121:0 2122:0 2123:0 2124:2.5e-05 2125:0 2126:0 2127:0 2128:0 2129:0 2130:0 2131:0 2132:0 2133:0 2134:0 2135:0 2136:0 2137:0 2138:0 2139:0 2140:0 2141:0 2142:0 2143:0 2144:0 2145:0.00025 2146:0 2147:0 2148:0 2149:0 2150:0 2151:0 2152:0 2153:0.001575 2154:0.00755 2155:0 2156:0.00185 2157:0 2158:0.00015 2159:0 2160:0.000475 2161:2.5e-05 2162:0 2163:0 2164:0 2165:0 2166:0 2167:0 2168:0 2169:0 2170:0 2171:0 2172:0 2173:5e-05 2174:0 2175:0 2176:0.000125 2177:0 2178:0 2179:0 2180:2.5e-05 2181:0 2182:0 2183:0 2184:0 2185:0 2186:0 2187:0 2188:2.5e-05 2189:0 2190:0 2191:0 2192:2.5e-05 2193:5e-05 2194:0 2195:0 2196:0 2197:7.5e-05 2198:0 2199:0.001225 2200:0.0004 2201:0 2202:0 2203:0 2204:0 2205:0 2206:0 2207:0 2208:5e-05 2209:0 2210:0 2211:0 2212:0 2213:0 2214:0 2215:0 2216:0 2217:0 2218:0 2219:0 2220:2.5e-05 2221:0 2222:0 2223:0 2224:0 2225:0 2226:0 2227:0 2228:0 2229:0 2230:0 2231:0 2232:2.5e-05 2233:0 2234:0 2235:0 2236:0 2237:2.5e-05 2238:0 2239:0 2240:5e-05 2241:5e-05 2242:2.5e-05 2243:2.5e-05 2244:0 2245:0 2246:0 2247:0 2248:0 2249:0 2250:2.5e-05 2251:0 2252:2.5e-05 2253:0 2254:0 2255:0 2256:0 2257:0.0003 2258:0 2259:0 2260:0 2261:0.000225 2262:2.5e-05 2263:2.5e-05 2264:7.5e-05 2265:0 2266:0 2267:0 2268:2.5e-05 2269:0 2270:0 2271:0 2272:7.5e-05 2273:0.000225 2274:2.5e-05 2275:0 2276:0 2277:0 2278:0 2279:0 2280:0 2281:0.00135 2282:0.001275 2283:0 2284:0.0005 2285:0 2286:0 2287:0 2288:0.0001 2289:0.000875 2290:2.5e-05 2291:0 2292:0 2293:0.000175 2294:2.5e-05 2295:5e-05 2296:0 2297:0.000175 2298:0.0002 2299:0 2300:5e-05 2301:5e-05 2302:5e-05 2303:0 2304:0.0001 2305:0.005325 2306:5e-05 2307:0.000175 2308:0.00035 2309:5e-05 2310:0 2311:0.00035 2312:0.0024 2313:0.00015 2314:0.000225 2315:2.5e-05 2316:0.001125 2317:2.5e-05 2318:0 2319:2.5e-05 2320:0.00545 2321:0.000125 2322:0 2323:2.5e-05 2324:0 2325:0.000275 2326:0 2327:0.002925 2328:0.008275 2329:2.5e-05 2330:2.5e-05 2331:0 2332:2.5e-05 2333:0 2334:0 2335:5e-05 2336:0.001975 2337:0 2338:0 2339:0 2340:0 2341:2.5e-05 2342:0 2343:0 2344:2.5e-05 2345:0.000275 2346:0.0006 2347:0 2348:0.00245 2349:5e-05 2350:2.5e-05 2351:0 2352:0.000825 2353:0 2354:0 2355:0 2356:0 2357:0 2358:0 2359:0 2360:2.5e-05 2361:0 2362:2.5e-05 2363:0 2364:0 2365:5e-05 2366:0 2367:5e-05 2368:0.00015 2369:0.000125 2370:0 2371:0 2372:0 2373:0 2374:0 2375:2.5e-05 2376:0 2377:0 2378:2.5e-05 2379:0 2380:0 2381:0 2382:0 2383:0 2384:0 2385:0 2386:0 2387:0 2388:0 2389:0 2390:0 2391:2.5e-05 2392:0 2393:0 2394:0 2395:0 2396:0 2397:0 2398:0 2399:0 2400:0 2401:0.000325 2402:0 2403:0 2404:0 2405:0 2406:0 2407:5e-05 2408:2.5e-05 2409:0.00095 2410:0.0011 2411:0 2412:0.000325 2413:5e-05 2414:0 2415:0 2416:0.000325 2417:0 2418:0 2419:0 2420:0 2421:0 2422:0 2423:2.5e-05 2424:0 2425:2.5e-05 2426:0 2427:0 2428:0 2429:2.5e-05 2430:0 2431:0 2432:0.0001 2433:2.5e-05 2434:0 2435:0 2436:0 2437:0 2438:0 2439:0 2440:0 2441:0 2442:2.5e-05 2443:0 2444:0 2445:0 2446:0 2447:0 2448:0 2449:0.000275 2450:0 2451:0 2452:0 2453:0.001225 2454:0 2455:0.005475 2456:0.001975 2457:0 2458:0 2459:0 2460:5e-05 2461:5e-05 2462:2.5e-05 2463:0 2464:0.000475 2465:0 2466:0 2467:0 2468:0 2469:0 2470:0 2471:0 2472:0 2473:0 2474:0 2475:0 2476:5e-05 2477:0 2478:0 2479:0 2480:0 2481:0 2482:0 2483:0 2484:0 2485:0 2486:0 2487:0.0001 2488:2.5e-05 2489:0 2490:0 2491:0 2492:2.5e-05 2493:0 2494:0 2495:2.5e-05 2496:0.000225 2497:0.0003 2498:2.5e-05 2499:0 2500:5e-05 2501:0 2502:0 2503:2.5e-05 2504:0 2505:2.5e-05 2506:0 2507:0 2508:2.5e-05 2509:0 2510:0 2511:0 2512:0 2513:0.001325 2514:2.5e-05 2515:0 2516:0 2517:0.003025 2518:0.0001 2519:0.000775 2520:0.000475 2521:0 2522:5e-05 2523:0 2524:0 2525:0 2526:0 2527:0 2528:5e-05 2529:0.00075 2530:0 2531:0 2532:5e-05 2533:0 2534:0 2535:0 2536:2.5e-05 2537:0.0017 2538:0.000775 2539:0 2540:0.00015 2541:0 2542:5e-05 2543:0 2544:0.000125 2545:0.001475 2546:0 2547:0 2548:0 2549:0.001075 2550:0 2551:0.00035 2552:0.000175 2553:0.000775 2554:0.000175 2555:0 2556:0 2557:0.000325 2558:0.00015 2559:0.0001 2560:0.0004 2561:0.0053 2562:2.5e-05 2563:7.5e-05 2564:0.000325 2565:2.5e-05 2566:0 2567:0.000125 2568:0.001 2569:0.000125 2570:0.00015 2571:2.5e-05 2572:0.002625 2573:2.5e-05 2574:0 2575:0 2576:0.004625 2577:7.5e-05 2578:0 2579:0 2580:0 2581:0.0004 2582:0 2583:0.001275 2584:0.0031 2585:2.5e-05 2586:2.5e-05 2587:0 2588:2.5e-05 2589:0 2590:0 2591:2.5e-05 2592:0.0007 2593:5e-05 2594:0 2595:2.5e-05 2596:2.5e-05 2597:2.5e-05 2598:0 2599:0 2600:0 2601:0.000125 2602:0.0016 2603:2.5e-05 2604:0.007975 2605:0 2606:2.5e-05 2607:2.5e-05 2608:0.00225 2609:0 2610:0 2611:0 2612:0 2613:2.5e-05 2614:0 2615:5e-05 2616:0 2617:0 2618:0 2619:0 2620:0 2621:0 2622:0 2623:2.5e-05 2624:0.000125 2625:7.5e-05 2626:2.5e-05 2627:2.5e-05 2628:0 2629:0 2630:0 2631:0 2632:0 2633:0 2634:0 2635:0 2636:2.5e-05 2637:0 2638:0 2639:0 2640:0 2641:2.5e-05 2642:0 2643:0 2644:0 2645:2.5e-05 2646:0 2647:2.5e-05 2648:0 2649:0 2650:0 2651:0 2652:0 2653:0 2654:0 2655:0 2656:0 2657:5e-05 2658:0 2659:0 2660:0 2661:2.5e-05 2662:0 2663:0 2664:2.5e-05 2665:0.00215 2666:0.004525 2667:0 2668:0.000825 2669:2.5e-05 2670:0 2671:0 2672:5e-05 2673:5e-05 2674:0 2675:0 2676:0 2677:0 2678:0 2679:0 2680:2.5e-05 2681:0 2682:0 2683:0 2684:0 2685:0.0001 2686:0 2687:0 2688:2.5e-05 2689:2.5e-05 2690:0 2691:0 2692:0 2693:0 2694:0 2695:0 2696:2.5e-05 2697:0 2698:0 2699:0 2700:0 2701:0 2702:0 2703:0 2704:2.5e-05 2705:0.000275 2706:2.5e-05 2707:0 2708:2.5e-05 2709:0.00025 2710:0 2711:0.00195 2712:0.0012 2713:7.5e-05 2714:2.5e-05 2715:0 2716:0 2717:0 2718:0 2719:0 2720:0.00015 2721:0 2722:0 2723:0 2724:0 2725:0 2726:0 2727:0 2728:0 2729:0 2730:2.5e-05 2731:0 2732:0 2733:0 2734:0 2735:0 2736:2.5e-05 2737:0 2738:0 2739:0 2740:0 2741:0 2742:0 2743:5e-05 2744:0 2745:0 2746:0 2747:0 2748:0 2749:0 2750:0 2751:0 2752:5e-05 2753:0.000175 2754:2.5e-05 2755:0 2756:0 2757:0 2758:0 2759:0 2760:0 2761:5e-05 2762:0 2763:0 2764:5e-05 2765:0 2766:0 2767:0 2768:0 2769:0.001325 2770:5e-05 2771:2.5e-05 2772:2.5e-05 2773:0.0019 2774:5e-05 2775:0.00045 2776:0.000225 2777:0 2778:2.5e-05 2779:0 2780:0 2781:0 2782:0 2783:0 2784:7.5e-05 2785:0.000925 2786:0 2787:0 2788:0 2789:0 2790:0 2791:2.5e-05 2792:0 2793:0.0047 2794:0.001 2795:0 2796:0.00025 2797:0 2798:0 2799:0 2800:0.000125 2801:0.0027 2802:2.5e-05 2803:0 2804:0 2805:0.00155 2806:2.5e-05 2807:0.000175 2808:0.0001 2809:0.000875 2810:0.00025 2811:0 2812:2.5e-05 2813:0.00015 2814:0.0001 2815:0 2816:0.000275 2817:0.00505 2818:0 2819:5e-05 2820:0 2821:0 2822:0 2823:0.00045 2824:0.000475 2825:0.000325 2826:2.5e-05 2827:0 2828:0.000725 2829:0 2830:0 2831:0 2832:0.002225 2833:0.0001 2834:0 2835:0 2836:0 2837:2.5e-05 2838:0 2839:0.000325 2840:0.000575 2841:5e-05 2842:0 2843:0 2844:0 2845:0 2846:0 2847:0 2848:0.000325 2849:0 2850:0 2851:0 2852:0 2853:0 2854:0 2855:0 2856:0 2857:0.0003 2858:0.0006 2859:0 2860:0.00445 2861:0 2862:0 2863:0 2864:0.00055 2865:0 2866:0 2867:0 2868:0 2869:0 2870:0 2871:0 2872:0 2873:0 2874:0 2875:0 2876:0 2877:0 2878:0 2879:0 2880:0.000125 2881:0.0001 2882:0 2883:0 2884:0 2885:0 2886:0 2887:2.5e-05 2888:0 2889:0 2890:0 2891:0 2892:0 2893:0 2894:0 2895:0 2896:0 2897:0 2898:0 2899:0 2900:0 2901:2.5e-05 2902:0 2903:0 2904:0 2905:0 2906:0 2907:0 2908:0 2909:0 2910:0 2911:0 2912:0 2913:0.000175 2914:0 2915:0 2916:0 2917:0 2918:0 2919:0 2920:2.5e-05 2921:0.000475 2922:0.003425 2923:0 2924:0.000925 2925:0 2926:0 2927:0 2928:5e-05 2929:0 2930:0 2931:0 2932:0 2933:0 2934:0 2935:0 2936:0 2937:0 2938:0 2939:0 2940:0 2941:0 2942:0 2943:0 2944:0 2945:0 2946:0 2947:0 2948:0 2949:0 2950:0 2951:0 2952:0 2953:0 2954:2.5e-05 2955:0 2956:2.5e-05 2957:0 2958:0 2959:0 2960:5e-05 2961:0.000175 2962:0 2963:0 2964:0 2965:0.000425 2966:0 2967:0.001675 2968:0.0004 2969:0 2970:0 2971:0 2972:0 2973:0 2974:0 2975:0 2976:0.000125 2977:0 2978:0 2979:0 2980:0 2981:0 2982:0 2983:0 2984:0 2985:0 2986:0 2987:0 2988:7.5e-05 2989:0 2990:0 2991:0 2992:0 2993:0 2994:0 2995:0 2996:0 2997:0 2998:0 2999:0 3000:0 3001:0 3002:0 3003:0 3004:0 3005:0 3006:0 3007:0 3008:0.000275 3009:2.5e-05 3010:0 3011:0 3012:0 3013:2.5e-05 3014:0 3015:0 3016:0 3017:0 3018:0 3019:0 3020:0 3021:0 3022:0 3023:0 3024:0 3025:0.0018 3026:0 3027:0 3028:2.5e-05 3029:0.00685 3030:7.5e-05 3031:0.000325 3032:0.000125 3033:2.5e-05 3034:0 3035:0 3036:0 3037:0 3038:5e-05 3039:0 3040:0.00015 3041:0.002025 3042:0 3043:0 3044:0 3045:0 3046:0 3047:0 3048:0 3049:0.01415 3050:0.000925 3051:0 3052:5e-05 3053:0 3054:0 3055:0 3056:0 3057:0.007625 3058:2.5e-05 3059:0 3060:0 3061:0.001075 3062:0 3063:5e-05 3064:0 3065:0.001625 3066:0 3067:0 3068:2.5e-05 3069:7.5e-05 3070:5e-05 3071:0 3072:0.0001 3073:0.0051 3074:0 3075:0.0002 3076:7.5e-05 3077:0 3078:0 3079:0.0001 3080:0.000125 3081:0.0001 3082:0 3083:0 3084:0.00085 3085:0 3086:0 3087:0 3088:0.0007 3089:2.5e-05 3090:0 3091:0 3092:0 3093:5e-05 3094:0 3095:0.000125 3096:0.000475 3097:0 3098:0 3099:0 3100:0 3101:0 3102:0 3103:0 3104:0.0002 3105:0 3106:0 3107:2.5e-05 3108:0 3109:0 3110:0 3111:0 3112:0 3113:0.0001 3114:0.001325 3115:2.5e-05 3116:0.002725 3117:0 3118:0 3119:0 3120:0.000325 3121:0 3122:0 3123:0 3124:0 3125:2.5e-05 3126:0 3127:0 3128:0 3129:0 3130:2.5e-05 3131:0 3132:0 3133:0 3134:2.5e-05 3135:0 3136:0.00015 3137:0.0003 3138:0 3139:2.5e-05 3140:0 3141:0 3142:0 3143:0 3144:0 3145:0 3146:0 3147:0 3148:0 3149:0 3150:0 3151:0 3152:0 3153:0 3154:0 3155:0 3156:0 3157:2.5e-05 3158:0 3159:0 3160:0 3161:0 3162:0 3163:0 3164:0 3165:0 3166:0 3167:0 3168:0 3169:0.00035 3170:0 3171:0 3172:0 3173:0 3174:0 3175:0 3176:0 3177:0.006 3178:0.01325 3179:0 3180:0.0006 3181:0 3182:0 3183:0 3184:0 3185:0 3186:0 3187:0 3188:0 3189:0 3190:0 3191:0 3192:0 3193:2.5e-05 3194:0 3195:0 3196:0 3197:0 3198:0 3199:0 3200:0 3201:0 3202:0 3203:0 3204:0 3205:0 3206:0 3207:0 3208:0 3209:0 3210:0 3211:0 3212:5e-05 3213:0 3214:0 3215:0 3216:0 3217:5e-05 3218:0 3219:0 3220:0 3221:0.0002 3222:0 3223:0.000275 3224:0.000325 3225:0 3226:0 3227:0 3228:0 3229:0 3230:0 3231:0 3232:2.5e-05 3233:0 3234:0 3235:0 3236:0 3237:0 3238:0 3239:0 3240:0 3241:0 3242:0 3243:0 3244:0 3245:0 3246:0 3247:0 3248:0 3249:0 3250:0 3251:0 3252:0 3253:0 3254:0 3255:0 3256:0 3257:2.5e-05 3258:2.5e-05 3259:0 3260:0 3261:0 3262:0 3263:0 3264:5e-05 3265:0.00015 3266:0 3267:0 3268:0 3269:0 3270:0 3271:0 3272:0 3273:0 3274:2.5e-05 3275:0 3276:0 3277:0 3278:0 3279:0 3280:0 3281:0.000325 3282:0 3283:0 3284:2.5e-05 3285:0.000475 3286:0 3287:0.0001 3288:0.000125 3289:0 3290:0 3291:0 3292:0 3293:0 3294:0 3295:0 3296:0 3297:0.0013 3298:0 3299:0 3300:0 3301:0 3302:0 3303:0 3304:0 3305:0.0167 3306:0.004625 3307:0 3308:0.0001 3309:0 3310:0 3311:0 3312:2.5e-05 3313:0.00205 3314:0 3315:0 3316:0 3317:0.0004 3318:0 3319:0 3320:0 3321:0.001075 3322:0.000325 3323:0 3324:0 3325:5e-05 3326:7.5e-05 3327:0 3328:7.5e-05 3329:0.00515 3330:2.5e-05 3331:0.000175 3332:0.00025 3333:2.5e-05 3334:0 3335:0.0002 3336:0.000425 3337:5e-05 3338:0.0001 3339:0 3340:0.000575 3341:0 3342:0 3343:0 3344:0.0008 3345:0 3346:0 3347:2.5e-05 3348:0 3349:2.5e-05 3350:0 3351:0.0009 3352:0.00095 3353:0 3354:0 3355:0 3356:0 3357:0 3358:0 3359:0 3360:0.00035 3361:2.5e-05 3362:0 3363:0 3364:0 3365:0 3366:0 3367:0 3368:0 3369:7.5e-05 3370:0.00045 3371:2.5e-05 3372:0.00115 3373:2.5e-05 3374:0 3375:0 3376:0.0005 3377:0 3378:0 3379:0 3380:0 3381:0 3382:0 3383:2.5e-05 3384:0 3385:0 3386:0 3387:0 3388:0 3389:7.5e-05 3390:0 3391:0 3392:0.000375 3393:0.0001 3394:0 3395:2.5e-05 3396:5e-05 3397:0 3398:0 3399:0 3400:0 3401:0 3402:0 3403:0 3404:0 3405:0 3406:0 3407:0 3408:0 3409:0 3410:0 3411:0 3412:0 3413:2.5e-05 3414:0 3415:0 3416:0 3417:0 3418:0 3419:0 3420:0 3421:0 3422:0 3423:0 3424:0 3425:0.000325 3426:0 3427:2.5e-05 3428:0 3429:0 3430:0 3431:0 3432:0 3433:0.00175 3434:0.00165 3435:0 3436:0.000325 3437:0 3438:5e-05 3439:2.5e-05 3440:0.000125 3441:0 3442:0 3443:0 3444:0 3445:2.5e-05 3446:0 3447:0 3448:0 3449:0 3450:0 3451:0 3452:0 3453:2.5e-05 3454:0 3455:0 3456:2.5e-05 3457:0 3458:0 3459:0 3460:0 3461:0 3462:0 3463:0 3464:0 3465:0 3466:0 3467:0 3468:0 3469:0 3470:0 3471:0 3472:0 3473:0.000125 3474:2.5e-05 3475:0 3476:2.5e-05 3477:0.001 3478:0 3479:0.004625 3480:0.001025 3481:0 3482:2.5e-05 3483:0 3484:2.5e-05 3485:0 3486:0 3487:0 3488:0.000325 3489:0 3490:0 3491:0 3492:0 3493:0 3494:0 3495:0 3496:0 3497:0 3498:0 3499:0 3500:2.5e-05 3501:0 3502:0 3503:0 3504:0 3505:0 3506:0 3507:0 3508:0 3509:0 3510:0 3511:0 3512:0 3513:0 3514:0 3515:0 3516:0 3517:0 3518:0 3519:0 3520:0.000125 3521:0.0004 3522:0 3523:0 3524:0 3525:0 3526:0 3527:0 3528:0 3529:0 3530:2.5e-05 3531:0 3532:0 3533:0 3534:0 3535:0 3536:0 3537:0.0028 3538:5e-05 3539:0 3540:0 3541:0.006325 3542:2.5e-05 3543:0.0005 3544:0.0001 3545:0 3546:5e-05 3547:0 3548:0 3549:0 3550:0 3551:0 3552:0 3553:0.002175 3554:0 3555:0 3556:0 3557:0 3558:0 3559:0 3560:0 3561:0.00975 3562:0.001525 3563:0 3564:5e-05 3565:0 3566:0 3567:0 3568:0 3569:0.008425 3570:0 3571:0 3572:0 3573:0.002275 3574:0 3575:0.00025 3576:0 3577:0.00225 3578:0.000275 3579:0 3580:2.5e-05 3581:0.0003 3582:0.000175 3583:0 3584:0.0001 3585:0.004975 3586:2.5e-05 3587:2.5e-05 3588:2.5e-05 3589:2.5e-05 3590:0 3591:2.5e-05 3592:0.0005 3593:0 3594:0 3595:0 3596:0.0002 3597:0 3598:0 3599:0 3600:0.000725 3601:2.5e-05 3602:0 3603:2.5e-05 3604:0 3605:2.5e-05 3606:0 3607:0.001075 3608:0.003675 3609:0 3610:0 3611:0 3612:0 3613:0 3614:0 3615:0 3616:0.000425 3617:0 3618:0 3619:0 3620:0 3621:0 3622:0 3623:0 3624:2.5e-05 3625:2.5e-05 3626:0.000175 3627:0 3628:0.00045 3629:0 3630:0 3631:0 3632:0.0002 3633:0 3634:0 3635:0 3636:0 3637:0 3638:0 3639:2.5e-05 3640:2.5e-05 3641:0 3642:0 3643:0 3644:0 3645:0 3646:0 3647:2.5e-05 3648:0.000125 3649:7.5e-05 3650:0 3651:0 3652:0 3653:0 3654:0 3655:0 3656:0 3657:0 3658:0 3659:0 3660:0 3661:0 3662:0 3663:0 3664:0 3665:0 3666:0 3667:0 3668:0 3669:2.5e-05 3670:0 3671:0 3672:0 3673:0 3674:0 3675:0 3676:0 3677:0 3678:0 3679:0 3680:0 3681:0.000175 3682:0 3683:0 3684:0 3685:0 3686:0 3687:0 3688:0 3689:0.001125 3690:0.001725 3691:0 3692:0.0001 3693:2.5e-05 3694:0 3695:0 3696:2.5e-05 3697:0 3698:0 3699:0 3700:0 3701:0 3702:0 3703:0 3704:0 3705:0 3706:0 3707:0 3708:0 3709:2.5e-05 3710:0 3711:0 3712:0 3713:0 3714:0 3715:0 3716:2.5e-05 3717:0 3718:0 3719:0 3720:0 3721:0 3722:0 3723:0 3724:0 3725:0 3726:0 3727:0 3728:0 3729:2.5e-05 3730:0 3731:0 3732:0 3733:0.00135 3734:0 3735:0.007125 3736:0.000775 3737:0 3738:0 3739:0 3740:0 3741:0 3742:0 3743:0 3744:7.5e-05 3745:0 3746:0 3747:0 3748:0 3749:0 3750:0 3751:0 3752:0 3753:0 3754:0 3755:0 3756:2.5e-05 3757:0 3758:0 3759:0 3760:0 3761:0 3762:0 3763:0 3764:0 3765:0 3766:0 3767:0 3768:0 3769:0 3770:2.5e-05 3771:0 3772:0 3773:0 3774:0 3775:0 3776:5e-05 3777:0.00015 3778:0 3779:0 3780:0 3781:0 3782:0 3783:0 3784:0 3785:0 3786:0 3787:0 3788:2.5e-05 3789:0 3790:0 3791:0 3792:0 3793:0.003 3794:0 3795:0 3796:0 3797:0.0068 3798:0 3799:0.001125 3800:0 3801:0 3802:0 3803:0 3804:0 3805:0 3806:0 3807:0 3808:5e-05 3809:0.001225 3810:0 3811:0 3812:0 3813:0 3814:0 3815:0 3816:0 3817:0.0078 3818:0.000625 3819:2.5e-05 3820:0.000125 3821:0 3822:0 3823:2.5e-05 3824:0 3825:0.010925 3826:0 3827:0 3828:0 3829:0.002825 3830:2.5e-05 3831:0.0002 3832:0 3833:0.001325 3834:0.000375 3835:0 3836:0 3837:7.5e-05 3838:7.5e-05 3839:0 3840:7.5e-05 3841:0.00505 3842:0 3843:5e-05 3844:0 3845:0 3846:0 3847:0.00045 3848:0.000475 3849:0.000325 3850:2.5e-05 3851:0 3852:0.000725 3853:0 3854:0 3855:0 3856:0.002225 3857:0.0001 3858:0 3859:0 3860:0 3861:2.5e-05 3862:0 3863:0.000325 3864:0.000575 3865:5e-05 3866:0 3867:0 3868:0 3869:0 3870:0 3871:0 3872:0.000325 3873:0 3874:0 3875:0 3876:0 3877:0 3878:0 3879:0 3880:0 3881:0.0003 3882:0.0006 3883:0 3884:0.00445 3885:0 3886:0 3887:0 3888:0.00055 3889:0 3890:0 3891:0 3892:0 3893:0 3894:0 3895:0 3896:0 3897:0 3898:0 3899:0 3900:0 3901:0 3902:0 3903:0 3904:0.000125 3905:0.0001 3906:0 3907:0 3908:0 3909:0 3910:0 3911:2.5e-05 3912:0 3913:0 3914:0 3915:0 3916:0 3917:0 3918:0 3919:0 3920:0 3921:0 3922:0 3923:0 3924:0 3925:2.5e-05 3926:0 3927:0 3928:0 3929:0 3930:0 3931:0 3932:0 3933:0 3934:0 3935:0 3936:0 3937:0.000175 3938:0 3939:0 3940:0 3941:0 3942:0 3943:0 3944:2.5e-05 3945:0.000475 3946:0.003425 3947:0 3948:0.000925 3949:0 3950:0 3951:0 3952:5e-05 3953:0 3954:0 3955:0 3956:0 3957:0 3958:0 3959:0 3960:0 3961:0 3962:0 3963:0 3964:0 3965:0 3966:0 3967:0 3968:0 3969:0 3970:0 3971:0 3972:0 3973:0 3974:0 3975:0 3976:0 3977:0 3978:2.5e-05 3979:0 3980:2.5e-05 3981:0 3982:0 3983:0 3984:5e-05 3985:0.000175 3986:0 3987:0 3988:0 3989:0.000425 3990:0 3991:0.001675 3992:0.0004 3993:0 3994:0 3995:0 3996:0 3997:0 3998:0 3999:0 4000:0.000125 4001:0 4002:0 4003:0 4004:0 4005:0 4006:0 4007:0 4008:0 4009:0 4010:0 4011:0 4012:7.5e-05 4013:0 4014:0 4015:0 4016:0 4017:0 4018:0 4019:0 4020:0 4021:0 4022:0 4023:0 4024:0 4025:0 4026:0 4027:0 4028:0 4029:0 4030:0 4031:0 4032:0.000275 4033:2.5e-05 4034:0 4035:0 4036:0 4037:2.5e-05 4038:0 4039:0 4040:0 4041:0 4042:0 4043:0 4044:0 4045:0 4046:0 4047:0 4048:0 4049:0.0018 4050:0 4051:0 4052:2.5e-05 4053:0.00685 4054:7.5e-05 4055:0.000325 4056:0.000125 4057:2.5e-05 4058:0 4059:0 4060:0 4061:0 4062:5e-05 4063:0 4064:0.00015 4065:0.002025 4066:0 4067:0 4068:0 4069:0 4070:0 4071:0 4072:0 4073:0.01415 4074:0.000925 4075:0 4076:5e-05 4077:0 4078:0 4079:0 4080:0 4081:0.007625 4082:2.5e-05 4083:0 4084:0 4085:0.001075 4086:0 4087:5e-05 4088:0 4089:0.001625 4090:0 4091:0 4092:2.5e-05 4093:7.5e-05 4094:5e-05 4095:0 4096:0.0001 
13.333376623733166 0 1:0.005175 2:0 3:0.00015 4:0.000225 5:5e-05 6:0 7:0.000175 8:0.001525 9:0.000225 10:0.000175 11:0 12:0.001725 13:0 14:2.5e-05 15:7.5e-05 16:0.010675 17:0.0002 18:0 19:0 20:0 21:0.00035 22:0 23:0.001675 24:0.004675 25:2.5e-05 26:2.5e-05 27:0 28:0 29:0 30:0 31:2.5e-05 32:0.001275 33:0 34:0 35:0 36:0 37:2.5e-05 38:0 39:0 40:0 41:0.00015 42:0.00045 43:2.5e-05 44:0.005325 45:2.5e-05 46:0 47:0 48:0.00105 49:2.5e-05 50:0 51:0 52:0 53:0 54:0 55:0 56:0 57:0 58:0 59:0 60:0 61:0 62:0 63:2.5e-05 64:5e-05 65:2.5e-05 66:0 67:0 68:2.5e-05 69:0 70:0 71:0 72:0 73:0 74:0 75:0 76:0 77:0 78:0 79:0 80:0 81:0 82:0 83:0 84:0 85:0 86:0 87:2.5e-05 88:0 89:0 90:0 91:0 92:0 93:0 94:0 95:0 96:0 97:0.000275 98:2.5e-05 99:0 100:0 101:0 102:0 103:0 104:0 105:0.000675 106:0.00135 107:2.5e-05 108:0.000375 109:2.5e-05 110:0 111:0 112:5e-05 113:0 114:0 115:0 116:0 117:2.5e-05 118:0 119:0 120:0 121:2.5e-05 122:0 123:0 124:0 125:0 126:0 127:0 128:0 129:0 130:0 131:0 132:0 133:0 134:0 135:0 136:0 137:0 138:0 139:0 140:0 141:0 142:0 143:0 144:5e-05 145:0.0006 146:0 147:0 148:0 149:0.000925 150:0 151:0.002625 152:0.0009 153:0 154:0 155:0 156:0 157:0 158:0 159:0 160:0.00025 161:0 162:0 163:0 164:0 165:0 166:0 167:0 168:0 169:0 170:0 171:0 172:2.5e-05 173:0 174:0 175:0 176:0 177:0 178:0 179:0 180:0 181:0 182:0 183:2.5e-05 184:0 185:0 186:0 187:0 188:0 189:0 190:0 191:0 192:5e-05 193:0.0001 194:0 195:0 196:0 197:5e-05 198:0 199:0 200:0 201:0 202:2.5e-05 203:0 204:0 205:0 206:0 207:0 208:0 209:0.00115 210:2.5e-05 211:0 212:0 213:0.00385 214:2.5e-05 215:0.000675 216:0.000325 217:0 218:2.5e-05 219:0 220:0 221:0 222:0 223:0 224:5e-05 225:0.000525 226:2.5e-05 227:0 228:0 229:0 230:0 231:0 232:5e-05 233:0.0013 234:0.00035 235:0 236:0.0003 237:0 238:0 239:0 240:0.00035 241:0.0066 242:7.5e-05 243:0 244:7.5e-05 245:0.001025 246:2.5e-05 247:0.00015 248:0.000175 249:0.00045 250:0.0004 251:0 252:0.0001 253:5e-05 254:0 255:2.5e-05 256:0.000175 257:0.005025 258:0 259:7.5e-05 260:0.00015 261:5e-05 262:0 263:7.5e-05 264:0.001525 265:2.5e-05 266:0.000125 267:0 268:0.0006 269:0 270:0 271:0 272:0.004025 273:7.5e-05 274:0 275:0 276:0 277:0.00025 278:0 279:0.003 280:0.0106 281:0 282:0 283:0 284:0 285:0 286:0 287:0 288:0.0014 289:2.5e-05 290:0 291:2.5e-05 292:0 293:0 294:0 295:0 296:0 297:0.000125 298:0.00045 299:5e-05 300:0.004875 301:0 302:0 303:0 304:0.0004 305:0 306:0 307:0 308:0 309:0 310:0 311:0 312:0 313:0 314:0 315:0 316:0 317:0 318:0 319:0 320:0.00035 321:7.5e-05 322:0 323:0 324:0 325:0 326:0 327:0 328:0 329:0 330:0 331:0 332:0 333:0 334:0 335:0 336:0 337:0 338:0 339:0 340:0 341:7.5e-05 342:0 343:0 344:0 345:0 346:0 347:0 348:0 349:0 350:0 351:0 352:0 353:5e-05 354:0 355:0 356:0 357:2.5e-05 358:0 359:2.5e-05 360:2.5e-05 361:0.000675 362:0.00225 363:0 364:0.000325 365:0 366:2.5e-05 367:0 368:0.00015 369:0 370:0 371:0 372:0 373:0 374:0 375:0 376:0 377:0 378:0 379:0 380:0 381:2.5e-05 382:0 383:0 384:0 385:0 386:0 387:0 388:0 389:0 390:0 391:0 392:0 393:0 394:0 395:0 396:0 397:0 398:0 399:0 400:0 401:2.5e-05 402:0 403:0 404:0 405:0.000875 406:0 407:0.0097 408:0.0023 409:0 410:2.5e-05 411:0 412:0 413:0 414:0 415:0 416:0.00035 417:0 418:0 419:0 420:0 421:0 422:0 423:0 424:0 425:0 426:0 427:0 428:0 429:0 430:0 431:0 432:0 433:0 434:0 435:0 436:0 437:0 438:0 439:0 440:2.5e-05 441:0 442:0 443:0 444:0 445:0 446:5e-05 447:0 448:0.000275 449:0.000125 450:0 451:0 452:2.5e-05 453:2.5e-05 454:0 455:0 456:2.5e-05 457:0 458:0 459:0 460:0 461:0 462:0 463:0 464:0 465:0.000825 466:2.5e-05 467:0 468:0 469:0.003375 470:0 471:0.000975 472:2.5e-05 473:0 474:0 475:0 476:0 477:0 478:0 479:0 480:2.5e-05 481:0.000375 482:0 483:0 484:0 485:0 486:0 487:0 488:0 489:0.002775 490:0.00065 491:0 492:5e-05 493:0 494:0 495:0 496:2.5e-05 497:0.00075 498:0 499:0 500:0 501:0.000525 502:0 503:0.00015 504:0.000175 505:0.000225 506:0.000175 507:0 508:0 509:0.000175 510:0.000225 511:2.5e-05 512:0.0001 513:0.00505 514:0 515:5e-05 516:0.00035 517:0 518:0 519:5e-05 520:0.00425 521:0 522:5e-05 523:0 524:0.00255 525:0 526:0 527:0 528:0.011275 529:2.5e-05 530:0 531:0 532:0 533:2.5e-05 534:0 535:0.001525 536:0.0166 537:0 538:0 539:0 540:0 541:0 542:0 543:2.5e-05 544:0.003475 545:0 546:0 547:0 548:0 549:0 550:0 551:0 552:0 553:5e-05 554:0.000825 555:0 556:0.003525 557:0 558:0 559:2.5e-05 560:0.001225 561:0 562:0 563:0 564:0 565:0 566:0 567:0 568:0 569:0 570:0 571:0 572:0 573:0 574:2.5e-05 575:2.5e-05 576:0.0002 577:7.5e-05 578:0 579:0 580:0 581:0 582:0 583:0 584:0 585:0 586:0 587:0 588:0 589:0 590:0 591:0 592:0 593:0 594:0 595:0 596:0 597:0 598:0 599:0 600:0 601:0 602:0 603:0 604:0 605:0 606:0 607:0 608:0 609:5e-05 610:0 611:0 612:2.5e-05 613:0 614:0 615:0 616:0 617:0.000425 618:0.003175 619:0 620:0.00045 621:2.5e-05 622:2.5e-05 623:0 624:5e-05 625:0 626:0 627:0 628:0 629:0 630:0 631:0 632:0 633:0 634:0 635:0 636:0 637:0 638:2.5e-05 639:0 640:2.5e-05 641:0 642:0 643:0 644:0 645:0 646:0 647:0 648:0 649:0 650:0 651:0 652:0 653:0 654:0 655:0 656:0 657:2.5e-05 658:0 659:0 660:0 661:0.00035 662:0 663:0.002525 664:0.000925 665:0 666:0 667:0 668:0 669:0 670:0 671:0 672:0.00025 673:0 674:0 675:0 676:0 677:0 678:0 679:0 680:0 681:0 682:0 683:0 684:2.5e-05 685:0 686:0 687:0 688:0 689:2.5e-05 690:0 691:0 692:0 693:2.5e-05 694:0 695:2.5e-05 696:0 697:0 698:0 699:0 700:0 701:0 702:0 703:0 704:7.5e-05 705:7.5e-05 706:0 707:0 708:0 709:0 710:0 711:0 712:0 713:0 714:0 715:0 716:0 717:0 718:0 719:0 720:0 721:0.0002 722:0 723:0 724:0 725:0.00045 726:0 727:0.000275 728:0.0001 729:0 730:0 731:0 732:0 733:0 734:0 735:0 736:0 737:0.000175 738:0 739:0 740:0 741:0 742:0 743:0 744:0 745:0.000525 746:0.000275 747:0 748:5e-05 749:0 750:0 751:0 752:0 753:0.000175 754:0 755:0 756:0 757:7.5e-05 758:0 759:0 760:0 761:0.00015 762:2.5e-05 763:0 764:2.5e-05 765:0 766:7.5e-05 767:0 768:5e-05 769:0.0052 770:2.5e-05 771:0.0001 772:0.000275 773:0 774:0 775:5e-05 776:0.00045 777:2.5e-05 778:0.00015 779:0 780:0.0005 781:0 782:0 783:0 784:0.000325 785:5e-05 786:0 787:0 788:2.5e-05 789:0.00015 790:0 791:0.002725 792:0.0035 793:0 794:0 795:0 796:0 797:0 798:0 799:2.5e-05 800:0.0003 801:0 802:0 803:0 804:0 805:0 806:0 807:0 808:0 809:2.5e-05 810:0.0005 811:0 812:0.0009 813:0 814:5e-05 815:0 816:0.000425 817:0 818:0 819:0 820:0 821:0 822:0 823:0 824:0 825:0 826:0 827:0 828:0 829:5e-05 830:0 831:2.5e-05 832:0.0003 833:0.000275 834:0 835:0 836:0 837:0 838:0 839:0 840:0 841:0 842:2.5e-05 843:0 844:0 845:0 846:0 847:0 848:0 849:0 850:0 851:0 852:0 853:0 854:0 855:0 856:0 857:0 858:0 859:0 860:0 861:0 862:0 863:0 864:0 865:0.0002 866:0 867:0 868:0 869:0 870:0 871:0 872:0 873:0.00085 874:0.002375 875:0 876:0.000375 877:2.5e-05 878:2.5e-05 879:0 880:0.000125 881:0 882:0 883:0 884:0 885:0 886:0 887:0 888:0 889:0 890:0 891:0 892:0 893:0 894:0 895:0 896:5e-05 897:5e-05 898:0 899:0 900:0 901:0 902:0 903:0 904:2.5e-05 905:0 906:0 907:0 908:0 909:0 910:0 911:0 912:0 913:0.0004 914:2.5e-05 915:2.5e-05 916:0 917:0.00175 918:0 919:0.016 920:0.00215 921:2.5e-05 922:2.5e-05 923:0 924:0 925:0 926:0 927:0 928:7.5e-05 929:0 930:0 931:0 932:0 933:0 934:0 935:0 936:0 937:0 938:0 939:0 940:0 941:0 942:0 943:0 944:0 945:0 946:0 947:0 948:0 949:2.5e-05 950:0 951:0 952:2.5e-05 953:0 954:0 955:0 956:0 957:0 958:2.5e-05 959:5e-05 960:0.000125 961:0.00025 962:0 963:5e-05 964:5e-05 965:0 966:0 967:0 968:0 969:0 970:2.5e-05 971:0 972:2.5e-05 973:0 974:0 975:0 976:0 977:0.002325 978:0 979:0 980:0 981:0.00895 982:0 983:0.001225 984:0.0001 985:0 986:0 987:0 988:0 989:0 990:0 991:0 992:0 993:0.00075 994:0 995:5e-05 996:0 997:0 998:0 999:0 1000:0 1001:0.0014 1002:0.000625 1003:0 1004:0.0001 1005:2.5e-05 1006:2.5e-05 1007:2.5e-05 1008:7.5e-05 1009:0.002125 1010:0 1011:0 1012:0 1013:0.0014 1014:0 1015:0.0004 1016:5e-05 1017:0.000625 1018:0.0001 1019:0 1020:0 1021:0.00025 1022:0 1023:2.5e-05 1024:0.000175 1025:0.00505 1026:0 1027:0.000325 1028:0.00065 1029:0 1030:0 1031:7.5e-05 1032:0.000875 1033:0 1034:0.000125 1035:0 1036:0.001175 1037:0 1038:0 1039:2.5e-05 1040:0.0044 1041:5e-05 1042:0 1043:0 1044:0 1045:0.0001 1046:0 1047:0.002175 1048:0.00885 1049:0 1050:0 1051:0 1052:0 1053:0 1054:0 1055:0 1056:0.0009 1057:0 1058:0 1059:0 1060:0 1061:2.5e-05 1062:0 1063:0 1064:2.5e-05 1065:0.000125 1066:0.000725 1067:0 1068:0.00725 1069:2.5e-05 1070:2.5e-05 1071:2.5e-05 1072:0.001275 1073:0 1074:0 1075:0 1076:0 1077:0 1078:0 1079:2.5e-05 1080:0 1081:0 1082:0 1083:0 1084:2.5e-05 1085:0 1086:0 1087:0 1088:0.0001 1089:0.000125 1090:0 1091:0 1092:0 1093:0 1094:0 1095:2.5e-05 1096:0 1097:0 1098:0 1099:0 1100:0 1101:0 1102:0 1103:0 1104:0 1105:0 1106:0 1107:0 1108:0 1109:2.5e-05 1110:0 1111:0 1112:0 1113:0 1114:0 1115:0 1116:0 1117:0 1118:0 1119:0 1120:0 1121:0.000175 1122:0 1123:0 1124:0 1125:2.5e-05 1126:0 1127:0 1128:0 1129:0.0012 1130:0.002475 1131:0 1132:0.0007 1133:2.5e-05 1134:0 1135:2.5e-05 1136:5e-05 1137:5e-05 1138:0 1139:0 1140:0 1141:0 1142:0 1143:2.5e-05 1144:0 1145:0 1146:0 1147:0 1148:0 1149:0 1150:0 1151:0 1152:2.5e-05 1153:0 1154:0 1155:0 1156:0 1157:0 1158:0 1159:0 1160:0 1161:0 1162:2.5e-05 1163:0 1164:2.5e-05 1165:0 1166:0 1167:0 1168:0 1169:7.5e-05 1170:0 1171:0 1172:2.5e-05 1173:0.00095 1174:2.5e-05 1175:0.005825 1176:0.001825 1177:0 1178:2.5e-05 1179:0 1180:2.5e-05 1181:0 1182:0 1183:0 1184:0.000275 1185:0 1186:0 1187:0 1188:0 1189:0 1190:0 1191:0 1192:0 1193:0 1194:0 1195:0 1196:2.5e-05 1197:0 1198:0 1199:0 1200:0 1201:0 1202:0 1203:0 1204:0 1205:0 1206:0 1207:0 1208:0 1209:0 1210:0 1211:0 1212:0 1213:0 1214:0 1215:0 1216:0.000175 1217:0.00015 1218:0 1219:2.5e-05 1220:2.5e-05 1221:0 1222:0 1223:0 1224:0 1225:0 1226:0 1227:0 1228:0 1229:0 1230:0 1231:0 1232:0 1233:0.00075 1234:0 1235:0 1236:0 1237:0.00195 1238:0 1239:0.000925 1240:0.000225 1241:0 1242:0 1243:0 1244:0 1245:0 1246:0 1247:0 1248:0 1249:0.000525 1250:0 1251:0 1252:0 1253:0 1254:0 1255:5e-05 1256:0 1257:0.002325 1258:0.000925 1259:0 1260:0.0001 1261:0 1262:0 1263:0 1264:5e-05 1265:0.003225 1266:0 1267:0 1268:0 1269:0.001075 1270:0 1271:0.00015 1272:0.0001 1273:0.0007 1274:0.00015 1275:0 1276:2.5e-05 1277:0.000125 1278:5e-05 1279:0 1280:0.0002 1281:0.00505 1282:0 1283:5e-05 1284:5e-05 1285:0 1286:0 1287:5e-05 1288:0.000825 1289:2.5e-05 1290:7.5e-05 1291:0 1292:0.000475 1293:0 1294:0 1295:0 1296:0.001225 1297:2.5e-05 1298:0 1299:0 1300:0 1301:2.5e-05 1302:0 1303:0.001325 1304:0.00305 1305:0 1306:0 1307:0 1308:0 1309:0 1310:0 1311:0 1312:0.000675 1313:0 1314:0 1315:5e-05 1316:0 1317:0 1318:0 1319:0 1320:0 1321:7.5e-05 1322:0.000875 1323:0 1324:0.00495 1325:0 1326:0 1327:0 1328:0.000625 1329:0 1330:0 1331:0 1332:0 1333:0 1334:0 1335:0 1336:0 1337:2.5e-05 1338:0 1339:0 1340:0 1341:0 1342:0 1343:2.5e-05 1344:0.000175 1345:0.000125 1346:0 1347:0 1348:0 1349:0 1350:0 1351:0 1352:0 1353:0 1354:0 1355:0 1356:0 1357:0 1358:0 1359:0 1360:0 1361:0 1362:0 1363:0 1364:0 1365:0 1366:0 1367:2.5e-05 1368:0 1369:0 1370:0 1371:0 1372:0 1373:0 1374:0 1375:0 1376:0 1377:0.0002 1378:0 1379:2.5e-05 1380:0 1381:2.5e-05 1382:0 1383:0 1384:0 1385:0.00155 1386:0.00425 1387:2.5e-05 1388:0.00065 1389:2.5e-05 1390:0 1391:0 1392:7.5e-05 1393:0 1394:0 1395:0 1396:0 1397:0 1398:0 1399:0 1400:0 1401:0 1402:0 1403:0 1404:0 1405:2.5e-05 1406:0 1407:0 1408:0 1409:2.5e-05 1410:0 1411:0 1412:0 1413:0 1414:0 1415:0 1416:0 1417:0 1418:0 1419:0 1420:0 1421:0 1422:0 1423:0 1424:0 1425:0.000125 1426:0 1427:0 1428:0 1429:0.001075 1430:0 1431:0.00625 1432:0.0012 1433:2.5e-05 1434:0 1435:0 1436:2.5e-05 1437:0 1438:2.5e-05 1439:0 1440:0.000175 1441:0 1442:0 1443:0 1444:0 1445:0 1446:0 1447:0 1448:0 1449:0 1450:0 1451:0 1452:5e-05 1453:0 1454:0 1455:0 1456:2.5e-05 1457:0 1458:0 1459:0 1460:0 1461:0 1462:0 1463:0 1464:0 1465:0 1466:0 1467:0 1468:2.5e-05 1469:0 1470:5e-05 1471:0 1472:0.000225 1473:0.0004 1474:0 1475:0 1476:0 1477:0 1478:0 1479:0 1480:0 1481:0 1482:0 1483:0 1484:0 1485:0 1486:0 1487:0 1488:2.5e-05 1489:0.002825 1490:2.5e-05 1491:2.5e-05 1492:0 1493:0.00685 1494:0 1495:0.000475 1496:7.5e-05 1497:0 1498:0 1499:0 1500:0 1501:0 1502:0 1503:0 1504:0 1505:0.00175 1506:0 1507:0 1508:0 1509:0 1510:0 1511:0 1512:0 1513:0.00565 1514:0.0012 1515:0 1516:0.0001 1517:2.5e-05 1518:0 1519:0 1520:7.5e-05 1521:0.002825 1522:2.5e-05 1523:0 1524:0 1525:0.001775 1526:0 1527:0.00025 1528:0 1529:0.0009 1530:0.000325 1531:0 1532:5e-05 1533:0.0004 1534:0.00025 1535:2.5e-05 1536:0.00015 1537:0.0053 1538:0 1539:0.000125 1540:0.00025 1541:5e-05 1542:0 1543:0.0001 1544:0.0004 1545:0.000125 1546:7.5e-05 1547:0 1548:0.000975 1549:0 1550:2.5e-05 1551:2.5e-05 1552:0.0009 1553:5e-05 1554:0 1555:2.5e-05 1556:0 1557:0.000175 1558:0 1559:0.000825 1560:0.00215 1561:0 1562:0 1563:0 1564:0 1565:0 1566:0 1567:0 1568:0.000175 1569:5e-05 1570:0 1571:0 1572:0 1573:0 1574:0 1575:5e-05 1576:0 1577:0.0002 1578:0.00135 1579:5e-05 1580:0.003125 1581:0 1582:0 1583:2.5e-05 1584:0.000725 1585:2.5e-05 1586:0 1587:0 1588:0 1589:0 1590:0 1591:0 1592:0 1593:0 1594:0 1595:0 1596:0 1597:0 1598:2.5e-05 1599:0 1600:0.00035 1601:0.00015 1602:0 1603:2.5e-05 1604:2.5e-05 1605:2.5e-05 1606:0 1607:0 1608:0 1609:0 1610:0 1611:0 1612:5e-05 1613:0 1614:0 1615:0 1616:0 1617:2.5e-05 1618:0 1619:0 1620:0 1621:2.5e-05 1622:0 1623:2.5e-05 1624:0 1625:0 1626:0 1627:0 1628:0 1629:0 1630:0 1631:0 1632:0 1633:0.0003 1634:0 1635:0 1636:0 1637:5e-05 1638:0 1639:0 1640:2.5e-05 1641:0.0032 1642:0.01315 1643:2.5e-05 1644:0.0011 1645:2.5e-05 1646:5e-05 1647:0 1648:0.000225 1649:5e-05 1650:0 1651:0 1652:0 1653:2.5e-05 1654:0 1655:2.5e-05 1656:0 1657:0 1658:2.5e-05 1659:0 1660:0 1661:5e-05 1662:2.5e-05 1663:2.5e-05 1664:0 1665:5e-05 1666:0 1667:0 1668:0 1669:0 1670:0 1671:0 1672:0 1673:0 1674:0 1675:0 1676:5e-05 1677:0 1678:0 1679:0 1680:0 1681:0.0002 1682:0 1683:0 1684:2.5e-05 1685:0.000575 1686:0 1687:0.001725 1688:0.0008 1689:2.5e-05 1690:0 1691:0 1692:0 1693:5e-05 1694:0 1695:0 1696:0.00015 1697:0 1698:0 1699:0 1700:0 1701:0 1702:0 1703:0 1704:0 1705:0 1706:0 1707:0 1708:0 1709:0 1710:0 1711:0 1712:0 1713:0 1714:0 1715:0 1716:0 1717:2.5e-05 1718:0 1719:0 1720:0 1721:2.5e-05 1722:0 1723:0 1724:2.5e-05 1725:0 1726:2.5e-05 1727:0 1728:7.5e-05 1729:0.0003 1730:5e-05 1731:0 1732:0 1733:0 1734:0 1735:0 1736:0 1737:2.5e-05 1738:0 1739:0 1740:5e-05 1741:0 1742:0 1743:0 1744:2.5e-05 1745:0.001175 1746:5e-05 1747:0 1748:0 1749:0.001975 1750:0 1751:0.000425 1752:0.000125 1753:0 1754:2.5e-05 1755:0 1756:0 1757:0 1758:0 1759:0 1760:0 1761:0.0013 1762:2.5e-05 1763:0 1764:2.5e-05 1765:0 1766:0 1767:0 1768:0 1769:0.005425 1770:0.003 1771:0 1772:0.00025 1773:2.5e-05 1774:0 1775:0 1776:7.5e-05 1777:0.003825 1778:2.5e-05 1779:0 1780:0 1781:0.00095 1782:0 1783:0.000275 1784:7.5e-05 1785:0.00115 1786:0.00085 1787:0 1788:0 1789:0.0002 1790:0.0002 1791:2.5e-05 1792:0.0003 1793:0.00515 1794:2.5e-05 1795:0.000325 1796:0.00075 1797:0 1798:0 1799:0.000475 1800:0.001375 1801:2.5e-05 1802:5e-05 1803:0 1804:0.002125 1805:0 1806:0 1807:0 1808:0.0038 1809:2.5e-05 1810:0 1811:5e-05 1812:0 1813:0.000125 1814:0 1815:0.002375 1816:0.00535 1817:0 1818:0 1819:0 1820:0 1821:2.5e-05 1822:2.5e-05 1823:2.5e-05 1824:0.00095 1825:2.5e-05 1826:0 1827:0 1828:0 1829:0 1830:0 1831:0 1832:2.5e-05 1833:7.5e-05 1834:0.00145 1835:0 1836:0.007425 1837:0 1838:7.5e-05 1839:0 1840:0.001075 1841:0 1842:0 1843:0 1844:0 1845:0 1846:0 1847:2.5e-05 1848:0 1849:0 1850:0 1851:0 1852:0 1853:2.5e-05 1854:0 1855:0 1856:0.00035 1857:0.00015 1858:0 1859:5e-05 1860:2.5e-05 1861:0 1862:0 1863:0 1864:0 1865:2.5e-05 1866:0 1867:0 1868:0 1869:0 1870:0 1871:0 1872:0 1873:0 1874:0 1875:0 1876:0 1877:0 1878:0 1879:0 1880:0 1881:0 1882:0 1883:0 1884:0 1885:0 1886:0 1887:0 1888:0 1889:0 1890:0 1891:0 1892:0 1893:0 1894:0 1895:0 1896:0 1897:0.000375 1898:0.005125 1899:0 1900:0.00115 1901:0 1902:0 1903:0 1904:0.00015 1905:2.5e-05 1906:0 1907:0 1908:0 1909:0 1910:0 1911:2.5e-05 1912:0 1913:0 1914:0 1915:0 1916:0 1917:0 1918:2.5e-05 1919:2.5e-05 1920:5e-05 1921:5e-05 1922:2.5e-05 1923:0 1924:2.5e-05 1925:0 1926:0 1927:0 1928:0 1929:0 1930:0 1931:0 1932:2.5e-05 1933:0 1934:0 1935:0 1936:0 1937:0.0002 1938:0 1939:5e-05 1940:5e-05 1941:0.000675 1942:0 1943:0.010475 1944:0.00155 1945:0 1946:0 1947:0 1948:0 1949:0 1950:2.5e-05 1951:0 1952:0.000125 1953:0 1954:0 1955:0 1956:0 1957:0 1958:0 1959:0 1960:0 1961:0 1962:2.5e-05 1963:0 1964:0 1965:0 1966:0 1967:0 1968:0 1969:0 1970:0 1971:0 1972:0 1973:0 1974:0 1975:2.5e-05 1976:7.5e-05 1977:0 1978:0 1979:0 1980:0 1981:0 1982:0 1983:0 1984:0.000175 1985:0.000125 1986:0 1987:5e-05 1988:0 1989:0 1990:0 1991:0 1992:2.5e-05 1993:0 1994:0 1995:0 1996:0 1997:0 1998:0 1999:0 2000:0 2001:0.000375 2002:0 2003:0 2004:0 2005:0.0027 2006:0 2007:0.000725 2008:7.5e-05 2009:2.5e-05 2010:0 2011:0 2012:0 2013:0 2014:0 2015:0 2016:0 2017:0.000275 2018:2.5e-05 2019:0 2020:0 2021:2.5e-05 2022:0 2023:0 2024:0 2025:0.0007 2026:0.000425 2027:0 2028:0.000175 2029:0 2030:0 2031:0 2032:0.0001 2033:0.000275 2034:0 2035:0 2036:2.5e-05 2037:0.000425 2038:0 2039:0.000225 2040:0.0003 2041:0.000125 2042:0.000125 2043:0 2044:0 2045:0.000225 2046:0.0003 2047:7.5e-05 2048:0.0002 2049:0.005075 2050:2.5e-05 2051:0.000425 2052:0.000675 2053:0 2054:0 2055:0.00015 2056:0.000625 2057:5e-05 2058:0.0001 2059:0 2060:0.001075 2061:0 2062:0 2063:0 2064:0.002625 2065:0.000175 2066:0 2067:0 2068:0 2069:0.000225 2070:0 2071:0.0021 2072:0.005825 2073:0 2074:0 2075:0 2076:0 2077:0 2078:0 2079:2.5e-05 2080:0.0009 2081:0 2082:0 2083:0 2084:0 2085:0 2086:0 2087:2.5e-05 2088:0 2089:2.5e-05 2090:0.0011 2091:2.5e-05 2092:0.0043 2093:0 2094:2.5e-05 2095:0 2096:0.001125 2097:0 2098:0 2099:0 2100:0 2101:0 2102:0 2103:0 2104:0 2105:0 2106:0 2107:0 2108:0 2109:0 2110:0 2111:0 2112:0.000125 2113:0.0002 2114:0 2115:0 2116:0 2117:0 2118:0 2119:0 2120:0 2121:2.5e-05 2122:0 2123:0 2124:0 2125:0 2126:0 2127:0 2128:2.5e-05 2129:0 2130:0 2131:0 2132:0 2133:0 2134:0 2135:2.5e-05 2136:0 2137:0 2138:0 2139:0 2140:0 2141:0 2142:0 2143:0 2144:0 2145:2.5e-05 2146:0 2147:0 2148:2.5e-05 2149:2.5e-05 2150:0 2151:2.5e-05 2152:2.5e-05 2153:0.001275 2154:0.004325 2155:0 2156:0.00085 2157:0 2158:0 2159:0 2160:0.0001 2161:0 2162:0 2163:0 2164:0 2165:0 2166:0 2167:0 2168:0 2169:0 2170:0 2171:0 2172:0 2173:0 2174:0 2175:0 2176:0 2177:0 2178:0 2179:0 2180:0 2181:0 2182:0 2183:0 2184:0 2185:0 2186:0 2187:0 2188:0 2189:0 2190:0 2191:0 2192:7.5e-05 2193:0.000375 2194:0 2195:0 2196:2.5e-05 2197:0.00125 2198:0 2199:0.0054 2200:0.0018 2201:2.5e-05 2202:0 2203:0 2204:0 2205:2.5e-05 2206:0 2207:0 2208:0.00015 2209:0 2210:0 2211:0 2212:0 2213:0 2214:0 2215:0 2216:0 2217:0 2218:0 2219:0 2220:0 2221:0 2222:0 2223:0 2224:0 2225:0 2226:0 2227:0 2228:0 2229:0 2230:0 2231:0 2232:0 2233:0 2234:0 2235:0 2236:0 2237:0 2238:5e-05 2239:0 2240:0.0002 2241:0.000125 2242:0 2243:0 2244:0 2245:0 2246:0 2247:0 2248:0 2249:0 2250:0 2251:0 2252:0 2253:0 2254:0 2255:0 2256:0 2257:0.001525 2258:0 2259:0 2260:0 2261:0.00335 2262:0 2263:0.00115 2264:0.0005 2265:0 2266:0 2267:0 2268:0 2269:0 2270:0 2271:0 2272:5e-05 2273:0.00065 2274:0 2275:2.5e-05 2276:0 2277:2.5e-05 2278:0 2279:2.5e-05 2280:0 2281:0.00185 2282:0.000475 2283:2.5e-05 2284:0 2285:2.5e-05 2286:0 2287:0 2288:7.5e-05 2289:0.0067 2290:0 2291:0 2292:0 2293:0.001375 2294:2.5e-05 2295:0.000275 2296:0.00055 2297:0.00025 2298:0 2299:0 2300:0 2301:2.5e-05 2302:0.0001 2303:2.5e-05 2304:0.00015 2305:0.005 2306:2.5e-05 2307:7.5e-05 2308:0.0002 2309:2.5e-05 2310:0 2311:0.0002 2312:0.001275 2313:2.5e-05 2314:2.5e-05 2315:2.5e-05 2316:0.0014 2317:0 2318:0 2319:0 2320:0.003375 2321:2.5e-05 2322:0 2323:2.5e-05 2324:0 2325:7.5e-05 2326:0 2327:0.0014 2328:0.005725 2329:0 2330:0 2331:0 2332:0 2333:0 2334:0 2335:0 2336:0.0013 2337:2.5e-05 2338:0 2339:0 2340:0 2341:0 2342:0 2343:2.5e-05 2344:0 2345:2.5e-05 2346:0.000675 2347:0 2348:0.00335 2349:0 2350:0 2351:0 2352:0.002025 2353:0 2354:0 2355:0 2356:0 2357:0 2358:0 2359:2.5e-05 2360:0 2361:0 2362:0 2363:0 2364:0 2365:0 2366:0 2367:0 2368:0.000125 2369:5e-05 2370:0 2371:0 2372:0 2373:0 2374:0 2375:2.5e-05 2376:0 2377:0 2378:0 2379:0 2380:0 2381:0 2382:0 2383:0 2384:0 2385:0 2386:0 2387:0 2388:0 2389:2.5e-05 2390:0 2391:0 2392:0 2393:0 2394:0 2395:0 2396:0 2397:0 2398:0 2399:0 2400:0 2401:0.000125 2402:0 2403:0 2404:0 2405:0 2406:0 2407:0 2408:0 2409:0.001225 2410:0.002225 2411:2.5e-05 2412:0.000525 2413:2.5e-05 2414:5e-05 2415:0 2416:0.000275 2417:0 2418:0 2419:0 2420:0 2421:0 2422:0 2423:2.5e-05 2424:0 2425:0 2426:0 2427:0 2428:0 2429:2.5e-05 2430:2.5e-05 2431:0 2432:2.5e-05 2433:0 2434:0 2435:0 2436:0 2437:0 2438:0 2439:0 2440:0 2441:0 2442:0 2443:0 2444:0 2445:0 2446:0 2447:0 2448:2.5e-05 2449:5e-05 2450:0 2451:0 2452:0 2453:0.001225 2454:0 2455:0.002475 2456:0.001325 2457:0 2458:0 2459:0 2460:0 2461:0 2462:0 2463:0 2464:0.000475 2465:0 2466:0 2467:0 2468:0 2469:0 2470:0 2471:0 2472:0 2473:0 2474:0 2475:0 2476:0.0001 2477:0 2478:0 2479:0 2480:2.5e-05 2481:0 2482:0 2483:0 2484:0 2485:0 2486:0 2487:0 2488:0 2489:0 2490:2.5e-05 2491:0 2492:2.5e-05 2493:2.5e-05 2494:0 2495:0 2496:7.5e-05 2497:0.0001 2498:0 2499:0 2500:0 2501:0 2502:0 2503:0 2504:0 2505:0 2506:2.5e-05 2507:0 2508:0 2509:0 2510:0 2511:0 2512:0 2513:0.002625 2514:2.5e-05 2515:0 2516:0 2517:0.006975 2518:5e-05 2519:0.000875 2520:0.000175 2521:0 2522:2.5e-05 2523:0 2524:2.5e-05 2525:0 2526:0 2527:0 2528:7.5e-05 2529:0.001025 2530:0 2531:0 2532:2.5e-05 2533:0 2534:0 2535:2.5e-05 2536:2.5e-05 2537:0.001825 2538:0.000675 2539:0 2540:0.000225 2541:0 2542:0 2543:0 2544:2.5e-05 2545:0.0066 2546:7.5e-05 2547:0 2548:0 2549:0.002025 2550:2.5e-05 2551:0.000125 2552:0.0001 2553:0.000475 2554:0.0005 2555:0 2556:0.000125 2557:0.000125 2558:0.000225 2559:0 2560:0.000275 2561:0.005 2562:5e-05 2563:7.5e-05 2564:0.000275 2565:0 2566:0 2567:2.5e-05 2568:0.0007 2569:2.5e-05 2570:2.5e-05 2571:0 2572:0.001725 2573:0 2574:0 2575:0 2576:0.0055 2577:2.5e-05 2578:0 2579:0 2580:2.5e-05 2581:2.5e-05 2582:0 2583:0.0005 2584:0.00165 2585:0 2586:0 2587:0 2588:0 2589:0 2590:0 2591:0 2592:0.00075 2593:0 2594:0 2595:0 2596:0 2597:0 2598:0 2599:0 2600:0 2601:0.0001 2602:0.001675 2603:0 2604:0.012475 2605:0 2606:0 2607:0 2608:0.00275 2609:0 2610:0 2611:0 2612:0 2613:0 2614:0 2615:0 2616:0 2617:0 2618:2.5e-05 2619:0 2620:0 2621:2.5e-05 2622:0 2623:0 2624:0.000275 2625:2.5e-05 2626:0 2627:0 2628:0 2629:0 2630:0 2631:0 2632:0 2633:2.5e-05 2634:5e-05 2635:0 2636:0 2637:0 2638:0 2639:0 2640:0 2641:0 2642:0 2643:0 2644:0 2645:0 2646:0 2647:0 2648:0 2649:0 2650:0 2651:0 2652:0 2653:0 2654:0 2655:0 2656:0 2657:0.0001 2658:0 2659:0 2660:0 2661:0 2662:0 2663:2.5e-05 2664:0 2665:0.001475 2666:0.007375 2667:0 2668:0.00205 2669:0 2670:2.5e-05 2671:0 2672:0.0001 2673:0 2674:0 2675:0 2676:0 2677:0 2678:0 2679:0 2680:0 2681:0 2682:0 2683:0 2684:0 2685:2.5e-05 2686:0 2687:0 2688:0 2689:7.5e-05 2690:0 2691:2.5e-05 2692:0 2693:0 2694:0 2695:0 2696:0 2697:0 2698:0 2699:0 2700:2.5e-05 2701:0 2702:0 2703:0 2704:0.0001 2705:5e-05 2706:0 2707:0 2708:0 2709:0.0001 2710:0 2711:0.0007 2712:0.000375 2713:0 2714:0 2715:0 2716:0 2717:0 2718:0 2719:0 2720:7.5e-05 2721:0 2722:0 2723:0 2724:0 2725:0 2726:0 2727:0 2728:0 2729:0 2730:2.5e-05 2731:0 2732:2.5e-05 2733:0 2734:0 2735:0 2736:0 2737:0 2738:0 2739:0 2740:0 2741:0 2742:0 2743:0 2744:0 2745:0 2746:0 2747:0 2748:0 2749:0 2750:0 2751:0 2752:7.5e-05 2753:7.5e-05 2754:0 2755:0 2756:2.5e-05 2757:0 2758:0 2759:0 2760:0 2761:2.5e-05 2762:0 2763:0 2764:0 2765:0 2766:0 2767:0 2768:0 2769:0.00075 2770:2.5e-05 2771:2.5e-05 2772:0 2773:0.00085 2774:0 2775:0.00015 2776:0.0001 2777:0 2778:0 2779:0 2780:5e-05 2781:0 2782:0 2783:0 2784:5e-05 2785:0.0011 2786:0 2787:0 2788:0 2789:0 2790:0 2791:0 2792:0 2793:0.002375 2794:0.001125 2795:0 2796:0.0004 2797:0 2798:0 2799:0 2800:0.000125 2801:0.005625 2802:5e-05 2803:0 2804:2.5e-05 2805:0.00105 2806:0 2807:7.5e-05 2808:0 2809:0.00085 2810:0.00055 2811:0 2812:5e-05 2813:7.5e-05 2814:0.000125 2815:0 2816:0.00015 2817:0.005125 2818:2.5e-05 2819:0.000825 2820:0.000275 2821:2.5e-05 2822:0 2823:0.000475 2824:0.000225 2825:0 2826:2.5e-05 2827:0 2828:0.00075 2829:0 2830:0 2831:0 2832:0.000375 2833:5e-05 2834:0 2835:0 2836:0 2837:0 2838:0 2839:0.000775 2840:0.0003 2841:0 2842:0 2843:0 2844:0 2845:0 2846:0 2847:0 2848:0.000375 2849:0 2850:0 2851:0 2852:0 2853:0 2854:0 2855:0 2856:2.5e-05 2857:0.0002 2858:0.00105 2859:2.5e-05 2860:0.005725 2861:0 2862:2.5e-05 2863:0 2864:0.000525 2865:0 2866:0 2867:0 2868:0 2869:0 2870:0 2871:0 2872:5e-05 2873:0 2874:0 2875:0 2876:0 2877:0 2878:0 2879:0 2880:0.000275 2881:0.0003 2882:0 2883:5e-05 2884:0 2885:2.5e-05 2886:0 2887:2.5e-05 2888:0 2889:0 2890:0 2891:0 2892:2.5e-05 2893:0 2894:0 2895:0 2896:0 2897:0 2898:0 2899:0 2900:0 2901:0 2902:0 2903:2.5e-05 2904:0 2905:0 2906:0 2907:0 2908:0 2909:0 2910:0 2911:0 2912:0 2913:0.000275 2914:0 2915:0 2916:2.5e-05 2917:0 2918:0 2919:0 2920:0 2921:0.000675 2922:0.003575 2923:0 2924:0.000875 2925:0 2926:0 2927:0 2928:0.00015 2929:0 2930:0 2931:0 2932:0 2933:0 2934:0 2935:2.5e-05 2936:0 2937:0 2938:0 2939:0 2940:0 2941:5e-05 2942:0 2943:0 2944:2.5e-05 2945:0 2946:0 2947:0 2948:0 2949:0 2950:0 2951:0 2952:0 2953:0 2954:0 2955:0 2956:0 2957:0 2958:0 2959:0 2960:0 2961:0.00055 2962:0 2963:0 2964:0 2965:0.0015 2966:5e-05 2967:0.010575 2968:0.000625 2969:2.5e-05 2970:0 2971:0 2972:0 2973:2.5e-05 2974:0 2975:0 2976:0.00015 2977:0 2978:0 2979:0 2980:0 2981:0 2982:0 2983:0 2984:0 2985:0 2986:0 2987:0 2988:0 2989:0 2990:0 2991:0 2992:0 2993:0 2994:0 2995:0 2996:0 2997:0 2998:0 2999:2.5e-05 3000:0 3001:0 3002:2.5e-05 3003:0 3004:0 3005:5e-05 3006:0 3007:0 3008:0.000175 3009:0.000275 3010:0 3011:0 3012:2.5e-05 3013:0 3014:0 3015:0 3016:0 3017:0 3018:0 3019:0 3020:0 3021:0 3022:0 3023:0 3024:0 3025:0.0014 3026:0 3027:0 3028:0 3029:0.016625 3030:0 3031:0.001375 3032:0 3033:0 3034:0 3035:0 3036:0 3037:0 3038:5e-05 3039:0 3040:0 3041:0.000375 3042:0 3043:0 3044:0 3045:0 3046:0 3047:0 3048:0 3049:0.001025 3050:0.000625 3051:0 3052:0 3053:0 3054:0 3055:2.5e-05 3056:2.5e-05 3057:0.00135 3058:0 3059:0 3060:0 3061:0.00075 3062:0 3063:0.0001 3064:0 3065:0.00025 3066:0.00015 3067:0 3068:0 3069:0.0003 3070:0.000125 3071:0 3072:0.000225 3073:0.005125 3074:5e-05 3075:0.0001 3076:0.0013 3077:0 3078:0 3079:2.5e-05 3080:0.00095 3081:0.00025 3082:0.000175 3083:0 3084:0.0003 3085:0 3086:0 3087:0 3088:0.001975 3089:0.000325 3090:0 3091:2.5e-05 3092:5e-05 3093:0.00015 3094:0 3095:0.0016 3096:0.02215 3097:5e-05 3098:0 3099:0 3100:0 3101:2.5e-05 3102:0 3103:0 3104:0.0013 3105:2.5e-05 3106:0 3107:0 3108:0 3109:0 3110:0 3111:0 3112:0 3113:7.5e-05 3114:0.00055 3115:0 3116:0.0025 3117:0 3118:0 3119:0 3120:0.000925 3121:0 3122:0 3123:0 3124:0 3125:0 3126:0 3127:0 3128:7.5e-05 3129:0 3130:0 3131:0 3132:0 3133:0 3134:0 3135:0 3136:0.0002 3137:5e-05 3138:0 3139:2.5e-05 3140:2.5e-05 3141:0 3142:0 3143:0 3144:0 3145:0 3146:0 3147:0 3148:0 3149:0 3150:0 3151:0 3152:0 3153:2.5e-05 3154:0 3155:0 3156:0 3157:0 3158:0 3159:0 3160:0 3161:0 3162:0 3163:0 3164:0 3165:0 3166:0 3167:0 3168:0 3169:0 3170:0 3171:0 3172:2.5e-05 3173:0 3174:0 3175:0 3176:0 3177:0.0004 3178:0.003675 3179:0 3180:0.000775 3181:0 3182:2.5e-05 3183:0 3184:2.5e-05 3185:0 3186:0 3187:0 3188:0 3189:0 3190:0 3191:2.5e-05 3192:0 3193:0 3194:0 3195:0 3196:0 3197:0 3198:0 3199:0 3200:2.5e-05 3201:2.5e-05 3202:0 3203:0 3204:0 3205:0 3206:0 3207:0 3208:2.5e-05 3209:0 3210:0 3211:0 3212:0 3213:0 3214:0 3215:0 3216:0 3217:0.000325 3218:0 3219:0 3220:0 3221:0.000275 3222:0 3223:0.007775 3224:0.001 3225:2.5e-05 3226:0 3227:0 3228:0 3229:0 3230:0 3231:0 3232:0.000125 3233:0 3234:0 3235:0 3236:0 3237:0 3238:0 3239:0 3240:0 3241:0 3242:0 3243:0 3244:0 3245:0 3246:0 3247:0 3248:0 3249:0 3250:0 3251:0 3252:0 3253:0 3254:0 3255:0 3256:0 3257:0 3258:0 3259:0 3260:0 3261:0 3262:0 3263:2.5e-05 3264:0.000175 3265:0.000275 3266:0 3267:0 3268:0 3269:0 3270:0 3271:0 3272:0 3273:0 3274:0 3275:0 3276:0 3277:0 3278:0 3279:0 3280:2.5e-05 3281:0.000275 3282:0 3283:0 3284:0 3285:0.0002 3286:0 3287:0.0002 3288:0 3289:0 3290:0 3291:0 3292:0 3293:0 3294:0 3295:0 3296:0 3297:0.00025 3298:0 3299:0 3300:0 3301:0 3302:0 3303:0 3304:0 3305:0.002725 3306:0 3307:0 3308:0 3309:5e-05 3310:0 3311:0 3312:0.0001 3313:0.0028 3314:0 3315:0 3316:0 3317:2.5e-05 3318:0 3319:5e-05 3320:2.5e-05 3321:0.000225 3322:0 3323:0 3324:0 3325:0 3326:0 3327:7.5e-05 3328:5e-05 3329:0.005 3330:2.5e-05 3331:5e-05 3332:5e-05 3333:0 3334:0 3335:5e-05 3336:0.00205 3337:0.000175 3338:0.0002 3339:0 3340:0.0021 3341:0 3342:0 3343:0 3344:0.00575 3345:0.000175 3346:0 3347:2.5e-05 3348:0 3349:0 3350:0 3351:0.00255 3352:0.017675 3353:0 3354:2.5e-05 3355:0 3356:0 3357:0 3358:0 3359:0 3360:0.001975 3361:0 3362:0 3363:0 3364:0 3365:2.5e-05 3366:0 3367:0 3368:0 3369:0.00015 3370:0.00045 3371:2.5e-05 3372:0.003225 3373:0 3374:0 3375:0 3376:0.0017 3377:2.5e-05 3378:0 3379:0 3380:0 3381:0 3382:0 3383:0 3384:0 3385:0 3386:0 3387:0 3388:0 3389:0 3390:0 3391:2.5e-05 3392:0.000175 3393:7.5e-05 3394:0 3395:0 3396:0 3397:0 3398:0 3399:0 3400:2.5e-05 3401:0 3402:0 3403:0 3404:0 3405:0 3406:0 3407:0 3408:0 3409:0 3410:0 3411:0 3412:0 3413:0 3414:0 3415:0 3416:0 3417:0 3418:0 3419:0 3420:0 3421:0 3422:0 3423:0 3424:0 3425:7.5e-05 3426:0 3427:0 3428:0 3429:0 3430:0 3431:0 3432:0 3433:0.0003 3434:0.0022 3435:0 3436:0.0003 3437:0 3438:0 3439:0 3440:2.5e-05 3441:0 3442:0 3443:0 3444:0 3445:2.5e-05 3446:0 3447:0 3448:0 3449:2.5e-05 3450:0 3451:0 3452:0 3453:0 3454:0 3455:0 3456:0 3457:2.5e-05 3458:0 3459:0 3460:0 3461:0 3462:0 3463:0 3464:0 3465:0 3466:0 3467:0 3468:0 3469:0 3470:0 3471:0 3472:0 3473:0.000375 3474:0 3475:0 3476:0 3477:7.5e-05 3478:2.5e-05 3479:0.007 3480:0.002825 3481:0 3482:0 3483:0 3484:0 3485:0 3486:0 3487:0 3488:0.00025 3489:0 3490:0 3491:0 3492:0 3493:0 3494:0 3495:0 3496:0 3497:0 3498:0 3499:0 3500:0 3501:0 3502:0 3503:0 3504:0 3505:0 3506:0 3507:0 3508:0 3509:0 3510:0 3511:2.5e-05 3512:0 3513:0 3514:0 3515:0 3516:0 3517:0 3518:0 3519:0 3520:5e-05 3521:7.5e-05 3522:0 3523:0 3524:0 3525:0 3526:0 3527:0 3528:0 3529:2.5e-05 3530:0 3531:0 3532:0 3533:0 3534:0 3535:0 3536:0 3537:0.000175 3538:0 3539:0 3540:0 3541:0.0006 3542:0 3543:0.0002 3544:0 3545:0 3546:0 3547:0 3548:0 3549:0 3550:2.5e-05 3551:0 3552:0 3553:0.000125 3554:0 3555:0 3556:0 3557:0 3558:0 3559:0 3560:0 3561:0.0022 3562:0.00025 3563:0 3564:0 3565:0 3566:0 3567:0 3568:0 3569:0.000525 3570:0 3571:0 3572:0 3573:0.000275 3574:0 3575:5e-05 3576:0 3577:0.00015 3578:0.0001 3579:0 3580:0 3581:0.00025 3582:5e-05 3583:0 3584:5e-05 3585:0.004975 3586:7.5e-05 3587:7.5e-05 3588:0.0005 3589:0 3590:0 3591:0.00025 3592:0.00155 3593:5e-05 3594:0.000125 3595:0 3596:0.0028 3597:0 3598:0 3599:0 3600:0.0027 3601:0.000225 3602:0 3603:0 3604:2.5e-05 3605:0 3606:0 3607:0.003075 3608:0.009175 3609:5e-05 3610:0 3611:0 3612:0 3613:0 3614:0 3615:0 3616:0.00165 3617:0 3618:0 3619:0 3620:0 3621:0 3622:0 3623:0 3624:0 3625:0.00025 3626:0.00075 3627:0 3628:0.014025 3629:0 3630:5e-05 3631:0 3632:0.00295 3633:0 3634:0 3635:0 3636:0 3637:0 3638:0 3639:2.5e-05 3640:5e-05 3641:2.5e-05 3642:0 3643:0 3644:0 3645:0 3646:0 3647:0 3648:0.000675 3649:0 3650:0 3651:0 3652:0 3653:0 3654:0 3655:0 3656:0 3657:2.5e-05 3658:2.5e-05 3659:0 3660:0 3661:0 3662:0 3663:0 3664:0 3665:0 3666:0 3667:0 3668:0 3669:0 3670:0 3671:0 3672:0 3673:0 3674:0 3675:0 3676:0 3677:0 3678:0 3679:0 3680:0 3681:0 3682:0 3683:0 3684:0 3685:0 3686:0 3687:0 3688:0 3689:0.000175 3690:0.00315 3691:0 3692:0.000475 3693:0 3694:0.0001 3695:0 3696:5e-05 3697:0 3698:0 3699:0 3700:0 3701:0 3702:0 3703:0 3704:0 3705:2.5e-05 3706:0 3707:0 3708:0 3709:0 3710:2.5e-05 3711:0 3712:0.0002 3713:0 3714:0 3715:0 3716:0 3717:0 3718:0 3719:0 3720:0 3721:0 3722:0 3723:0 3724:0 3725:0 3726:0 3727:0 3728:0 3729:0.000275 3730:0 3731:0 3732:0 3733:0 3734:0 3735:0.007175 3736:0.002875 3737:0 3738:0 3739:0 3740:0 3741:0 3742:2.5e-05 3743:0 3744:0.0003 3745:0 3746:0 3747:0 3748:0 3749:0 3750:0 3751:0 3752:0 3753:0 3754:0 3755:0 3756:0 3757:0 3758:0 3759:0 3760:0 3761:2.5e-05 3762:0 3763:0 3764:0 3765:0 3766:0 3767:2.5e-05 3768:0 3769:0 3770:0 3771:0 3772:0 3773:0 3774:0 3775:0 3776:0.00015 3777:0 3778:0 3779:0 3780:0 3781:0 3782:0 3783:0 3784:0 3785:0 3786:0 3787:0 3788:0 3789:0 3790:0 3791:0 3792:0 3793:0 3794:0 3795:0 3796:0 3797:0 3798:0 3799:0 3800:0 3801:0 3802:0 3803:0 3804:0 3805:0 3806:0 3807:0 3808:0 3809:7.5e-05 3810:0 3811:0 3812:0 3813:0 3814:0 3815:0 3816:0 3817:0.000525 3818:0 3819:0 3820:0 3821:0 3822:0 3823:0 3824:0 3825:0.000525 3826:0 3827:0 3828:0 3829:0 3830:0 3831:0 3832:0 3833:0.0001 3834:0 3835:0 3836:0 3837:0 3838:0 3839:2.5e-05 3840:5e-05 3841:0.005125 3842:2.5e-05 3843:0.000825 3844:0.000275 3845:2.5e-05 3846:0 3847:0.000475 3848:0.000225 3849:0 3850:2.5e-05 3851:0 3852:0.00075 3853:0 3854:0 3855:0 3856:0.000375 3857:5e-05 3858:0 3859:0 3860:0 3861:0 3862:0 3863:0.000775 3864:0.0003 3865:0 3866:0 3867:0 3868:0 3869:0 3870:0 3871:0 3872:0.000375 3873:0 3874:0 3875:0 3876:0 3877:0 3878:0 3879:0 3880:2.5e-05 3881:0.0002 3882:0.00105 3883:2.5e-05 3884:0.005725 3885:0 3886:2.5e-05 3887:0 3888:0.000525 3889:0 3890:0 3891:0 3892:0 3893:0 3894:0 3895:0 3896:5e-05 3897:0 3898:0 3899:0 3900:0 3901:0 3902:0 3903:0 3904:0.000275 3905:0.0003 3906:0 3907:5e-05 3908:0 3909:2.5e-05 3910:0 3911:2.5e-05 3912:0 3913:0 3914:0 3915:0 3916:2.5e-05 3917:0 3918:0 3919:0 3920:0 3921:0 3922:0 3923:0 3924:0 3925:0 3926:0 3927:2.5e-05 3928:0 3929:0 3930:0 3931:0 3932:0 3933:0 3934:0 3935:0 3936:0 3937:0.000275 3938:0 3939:0 3940:2.5e-05 3941:0 3942:0 3943:0 3944:0 3945:0.000675 3946:0.003575 3947:0 3948:0.000875 3949:0 3950:0 3951:0 3952:0.00015 3953:0 3954:0 3955:0 3956:0 3957:0 3958:0 3959:2.5e-05 3960:0 3961:0 3962:0 3963:0 3964:0 3965:5e-05 3966:0 3967:0 3968:2.5e-05 3969:0 3970:0 3971:0 3972:0 3973:0 3974:0 3975:0 3976:0 3977:0 3978:0 3979:0 3980:0 3981:0 3982:0 3983:0 3984:0 3985:0.00055 3986:0 3987:0 3988:0 3989:0.0015 3990:5e-05 3991:0.010575 3992:0.000625 3993:2.5e-05 3994:0 3995:0 3996:0 3997:2.5e-05 3998:0 3999:0 4000:0.00015 4001:0 4002:0 4003:0 4004:0 4005:0 4006:0 4007:0 4008:0 4009:0 4010:0 4011:0 4012:0 4013:0 4014:0 4015:0 4016:0 4017:0 4018:0 4019:0 4020:0 4021:0 4022:0 4023:2.5e-05 4024:0 4025:0 4026:2.5e-05 4027:0 4028:0 4029:5e-05 4030:0 4031:0 4032:0.000175 4033:0.000275 4034:0 4035:0 4036:2.5e-05 4037:0 4038:0 4039:0 4040:0 4041:0 4042:0 4043:0 4044:0 4045:0 4046:0 4047:0 4048:0 4049:0.0014 4050:0 4051:0 4052:0 4053:0.016625 4054:0 4055:0.001375 4056:0 4057:0 4058:0 4059:0 4060:0 4061:0 4062:5e-05 4063:0 4064:0 4065:0.000375 4066:0 4067:0 4068:0 4069:0 4070:0 4071:0 4072:0 4073:0.001025 4074:0.000625 4075:0 4076:0 4077:0 4078:0 4079:2.5e-05 4080:2.5e-05 4081:0.00135 4082:0 4083:0 4084:0 4085:0.00075 4086:0 4087:0.0001 4088:0 4089:0.00025 4090:0.00015 4091:0 4092:0 4093:0.0003 4094:0.000125 4095:0 4096:0.000225 
2.225642927089551 0 1:0.005 2:5e-05 3:0.0002 4:0.000325 5:2.5e-05 6:0 7:0.000125 8:0.004475 9:0 10:5e-05 11:0 12:0.003325 13:0 14:0 15:0 16:0.019375 17:0 18:0 19:0 20:2.5e-05 21:0.0001 22:0 23:0.00185 24:0.00995 25:2.5e-05 26:0 27:0 28:0 29:2.5e-05 30:0 31:0 32:0.00375 33:0 34:0 35:0 36:0 37:0 38:0 39:0 40:0 41:5e-05 42:0.0003 43:0 44:0.004575 45:0 46:2.5e-05 47:2.5e-05 48:0.00195 49:0 50:0 51:0 52:0 53:0 54:0 55:2.5e-05 56:0 57:0 58:0 59:0 60:0 61:0 62:0 63:5e-05 64:0.00025 65:2.5e-05 66:0 67:2.5e-05 68:0 69:0 70:0 71:0 72:0 73:0 74:2.5e-05 75:0 76:0 77:0 78:0 79:0 80:0 81:0 82:0 83:0 84:0 85:0 86:0 87:0 88:0 89:0 90:0 91:0 92:0 93:0 94:0 95:0 96:0 97:0 98:0 99:0 100:0 101:0 102:0 103:0 104:0 105:0.0001 106:0.000325 107:0 108:0.0002 109:2.5e-05 110:0 111:0 112:7.5e-05 113:2.5e-05 114:0 115:0 116:0 117:0 118:0 119:0 120:0 121:0 122:0 123:0 124:0 125:0 126:0 127:0 128:2.5e-05 129:0 130:0 131:0 132:0 133:0 134:0 135:0 136:0 137:0 138:0 139:0 140:2.5e-05 141:0 142:0 143:0 144:0 145:0 146:2.5e-05 147:0 148:0 149:0.00035 150:0 151:0.0019 152:0.001325 153:0 154:0 155:0 156:2.5e-05 157:0 158:0 159:0 160:0.000225 161:0 162:0 163:0 164:0 165:0 166:0 167:0 168:0 169:0 170:0 171:0 172:0 173:0 174:0 175:0 176:0 177:0 178:0 179:0 180:0 181:0 182:0 183:0 184:0 185:0 186:0 187:0 188:0 189:0 190:0 191:0 192:0.0001 193:2.5e-05 194:0 195:0 196:0 197:0 198:0 199:0 200:0 201:0 202:0 203:0 204:0 205:0 206:0 207:0 208:2.5e-05 209:5e-05 210:0 211:0 212:0 213:0.00065 214:2.5e-05 215:0.000275 216:7.5e-05 217:0 218:2.5e-05 219:0 220:0 221:0 222:0 223:0 224:0 225:7.5e-05 226:0 227:0 228:0 229:0 230:0 231:0 232:0 233:5e-05 234:7.5e-05 235:0 236:2.5e-05 237:0 238:2.5e-05 239:0 240:2.5e-05 241:2.5e-05 242:0 243:0 244:0 245:5e-05 246:0 247:0 248:0 249:2.5e-05 250:7.5e-05 251:0 252:0 253:2.5e-05 254:0 255:0 256:0.000125 257:0.00515 258:7.5e-05 259:0.00015 260:0.0005 261:0 262:0 263:0.000325 264:0.00315 265:7.5e-05 266:0.0002 267:0 268:0.002225 269:0 270:0 271:0 272:0.0085 273:0 274:0 275:0 276:2.5e-05 277:0.00035 278:0 279:0.0034 280:0.01145 281:0 282:0 283:0 284:0 285:0 286:5e-05 287:2.5e-05 288:0.0025 289:0 290:0 291:2.5e-05 292:2.5e-05 293:2.5e-05 294:0 295:0 296:2.5e-05 297:7.5e-05 298:0.00055 299:2.5e-05 300:0.002675 301:0 302:2.5e-05 303:0 304:0.001875 305:0 306:0 307:0 308:0 309:0 310:0 311:0 312:0 313:0 314:2.5e-05 315:0 316:0 317:0 318:0 319:2.5e-05 320:0.000475 321:0.0001 322:0 323:0 324:2.5e-05 325:0 326:0 327:0 328:0 329:0 330:0.0001 331:0 332:2.5e-05 333:0 334:0 335:0 336:0 337:0 338:0 339:0 340:0 341:2.5e-05 342:0 343:0 344:0 345:0 346:0 347:0 348:0 349:0 350:0 351:0 352:0 353:7.5e-05 354:0 355:0 356:0 357:0 358:0 359:0 360:0 361:0.0003 362:0.0012 363:0 364:0.00045 365:2.5e-05 366:7.5e-05 367:0 368:5e-05 369:0 370:0 371:0 372:0 373:2.5e-05 374:0 375:5e-05 376:0 377:0 378:0 379:0 380:0 381:0 382:0 383:0 384:5e-05 385:0 386:0 387:0 388:2.5e-05 389:0 390:0 391:0 392:2.5e-05 393:0 394:2.5e-05 395:0 396:2.5e-05 397:0 398:0 399:0 400:2.5e-05 401:0.000125 402:0 403:0 404:0 405:0.0007 406:0 407:0.005125 408:0.00225 409:0 410:0 411:0 412:2.5e-05 413:0 414:0 415:2.5e-05 416:0.00045 417:0 418:0 419:0 420:0 421:0 422:0 423:0 424:0 425:0 426:0 427:0 428:2.5e-05 429:0 430:0 431:0 432:2.5e-05 433:0 434:0 435:0 436:0 437:0 438:0 439:7.5e-05 440:2.5e-05 441:0 442:0 443:0 444:0 445:0 446:2.5e-05 447:7.5e-05 448:0.000225 449:0.00015 450:0 451:2.5e-05 452:0 453:0 454:0 455:0 456:2.5e-05 457:0 458:0 459:0 460:0 461:0 462:0 463:0 464:0 465:0.0006 466:0 467:2.5e-05 468:0 469:0.002325 470:0 471:0.00045 472:0.000325 473:0 474:0 475:0 476:0 477:0 478:0 479:0 480:5e-05 481:0.0001 482:0 483:2.5e-05 484:0 485:0 486:0 487:0 488:0 489:0.000175 490:7.5e-05 491:2.5e-05 492:7.5e-05 493:0 494:0 495:0 496:0.0001 497:0.000575 498:0 499:0 500:0 501:0.000575 502:0 503:0.000125 504:2.5e-05 505:2.5e-05 506:0.0001 507:0 508:0 509:0.00015 510:0.000175 511:0 512:0.000325 513:0.0051 514:5e-05 515:0.00025 516:0.00025 517:0 518:0 519:0.00015 520:0.000675 521:0 522:0 523:0 524:0.000775 525:0 526:0 527:0 528:0.00095 529:7.5e-05 530:0 531:0 532:2.5e-05 533:0.000225 534:0 535:0.0035 536:0.0058 537:0 538:0 539:0 540:0 541:0 542:0 543:0 544:0.000725 545:0 546:0 547:0 548:0 549:0 550:0 551:0 552:2.5e-05 553:0 554:0.000675 555:2.5e-05 556:0.002 557:0 558:0 559:0 560:0.000425 561:0 562:0 563:0 564:0 565:0 566:0 567:0 568:0 569:0 570:0 571:0 572:0 573:0 574:2.5e-05 575:0 576:0.000175 577:0.00015 578:2.5e-05 579:2.5e-05 580:0 581:0 582:0 583:0 584:0 585:0 586:2.5e-05 587:0 588:2.5e-05 589:0 590:0 591:0 592:0 593:0 594:0 595:0 596:0 597:0 598:0 599:0 600:0 601:0 602:0 603:0 604:0 605:0 606:0 607:0 608:0 609:0.00015 610:0 611:0 612:0 613:0 614:0 615:5e-05 616:0 617:0.0002 618:0.004225 619:0 620:0.00065 621:0 622:5e-05 623:0 624:2.5e-05 625:0 626:0 627:0 628:0 629:0 630:0 631:0 632:0 633:0 634:0 635:0 636:0 637:0 638:0 639:0 640:0 641:2.5e-05 642:0 643:2.5e-05 644:0 645:0 646:0 647:0 648:0 649:0 650:0 651:0 652:5e-05 653:0 654:0 655:0 656:0 657:7.5e-05 658:0 659:2.5e-05 660:7.5e-05 661:0.002125 662:0 663:0.017175 664:0.002675 665:0 666:0 667:0 668:0 669:0 670:0 671:0 672:0.000225 673:0 674:0 675:0 676:0 677:0 678:0 679:0 680:0 681:0 682:0 683:0 684:0 685:0 686:0 687:0 688:0 689:0 690:0 691:0 692:0 693:0 694:0 695:0 696:0 697:0 698:0 699:0 700:0 701:5e-05 702:2.5e-05 703:2.5e-05 704:0.00025 705:5e-05 706:0 707:0 708:0 709:0 710:0 711:0 712:0 713:0 714:0 715:0 716:0 717:0 718:0 719:0 720:0 721:0.0005 722:2.5e-05 723:0 724:0 725:0.0077 726:0 727:0.00205 728:5e-05 729:0 730:2.5e-05 731:0 732:0 733:0 734:0 735:0 736:0 737:2.5e-05 738:0 739:0 740:0 741:0 742:0 743:0 744:0 745:5e-05 746:0.00025 747:0 748:2.5e-05 749:0 750:0 751:0 752:0 753:0.00015 754:0 755:0 756:0 757:0.000425 758:0 759:2.5e-05 760:0 761:7.5e-05 762:5e-05 763:0 764:0 765:7.5e-05 766:0.00045 767:2.5e-05 768:0.00015 769:0.005175 770:0 771:0.000125 772:5e-05 773:5e-05 774:0 775:0.00025 776:0.00155 777:5e-05 778:7.5e-05 779:0 780:0.000475 781:0 782:0 783:0 784:0.00455 785:5e-05 786:2.5e-05 787:0 788:0 789:0.00015 790:0 791:0.002025 792:0.0108 793:0 794:0 795:0 796:2.5e-05 797:0 798:0 799:0 800:0.000975 801:2.5e-05 802:0 803:0 804:0 805:0 806:0 807:0 808:2.5e-05 809:0.000225 810:7.5e-05 811:0 812:0.001 813:0 814:0 815:2.5e-05 816:0.00045 817:0 818:0 819:0 820:0 821:0 822:0 823:2.5e-05 824:0 825:2.5e-05 826:2.5e-05 827:0 828:0 829:0 830:0 831:0 832:0.0001 833:0.00015 834:0 835:2.5e-05 836:2.5e-05 837:0 838:0 839:2.5e-05 840:0 841:2.5e-05 842:0 843:2.5e-05 844:0 845:0 846:0 847:0 848:2.5e-05 849:2.5e-05 850:0 851:0 852:0 853:2.5e-05 854:0 855:0 856:0 857:0 858:0 859:0 860:0 861:0 862:0 863:0 864:0 865:0.00025 866:0 867:2.5e-05 868:0 869:5e-05 870:0 871:2.5e-05 872:0 873:0.000475 874:0.000525 875:2.5e-05 876:0.000275 877:0 878:0 879:0 880:2.5e-05 881:2.5e-05 882:0 883:0 884:0 885:5e-05 886:0 887:0 888:0 889:0 890:0 891:0 892:0 893:0 894:0 895:0 896:0 897:0.0001 898:0 899:0 900:0 901:2.5e-05 902:0 903:0 904:0 905:0 906:0 907:0 908:0 909:0 910:0 911:0 912:2.5e-05 913:0.00015 914:0 915:5e-05 916:0 917:0.0012 918:2.5e-05 919:0.004075 920:0.00175 921:0 922:0 923:0 924:0 925:2.5e-05 926:0 927:2.5e-05 928:0.000675 929:0 930:0 931:0 932:0 933:0 934:0 935:0 936:0 937:0 938:0 939:0 940:0 941:0 942:0 943:0 944:2.5e-05 945:0 946:0 947:0 948:0 949:0 950:0 951:0 952:0 953:2.5e-05 954:0 955:0 956:0 957:0 958:0 959:0 960:0.0001 961:0.000325 962:0 963:0 964:0 965:0 966:0 967:0 968:0 969:2.5e-05 970:0 971:0 972:0 973:0 974:0 975:0 976:0 977:0.002175 978:2.5e-05 979:2.5e-05 980:0 981:0.0072 982:0 983:0.001375 984:0.00035 985:0 986:0 987:0 988:0 989:2.5e-05 990:0 991:0 992:2.5e-05 993:0.001225 994:2.5e-05 995:0 996:0 997:2.5e-05 998:0 999:0 1000:0 1001:0.0021 1002:0.000575 1003:0 1004:7.5e-05 1005:0 1006:0 1007:2.5e-05 1008:2.5e-05 1009:0.00385 1010:0 1011:0 1012:0 1013:0.00175 1014:0 1015:0.00035 1016:0.00015 1017:0.001225 1018:0.000225 1019:0 1020:2.5e-05 1021:0.00025 1022:7.5e-05 1023:0 1024:0.0002 1025:0.005275 1026:0 1027:0.0001 1028:0.0002 1029:2.5e-05 1030:0 1031:7.5e-05 1032:0.000825 1033:0.0002 1034:0.000375 1035:2.5e-05 1036:0.0022 1037:0 1038:0 1039:2.5e-05 1040:0.0053 1041:0.0001 1042:0 1043:0 1044:0 1045:0.000225 1046:0 1047:0.001125 1048:0.001625 1049:2.5e-05 1050:2.5e-05 1051:0 1052:0 1053:0 1054:0 1055:0 1056:0.00035 1057:5e-05 1058:0 1059:0 1060:0 1061:0 1062:0 1063:0 1064:0 1065:0.00065 1066:0.0017 1067:0 1068:0.004875 1069:5e-05 1070:0 1071:0 1072:0.0013 1073:0 1074:0 1075:0 1076:0 1077:0 1078:0 1079:0 1080:5e-05 1081:0 1082:0 1083:0 1084:0 1085:0 1086:0 1087:0 1088:0.000125 1089:0.0002 1090:0 1091:2.5e-05 1092:2.5e-05 1093:0 1094:0 1095:0 1096:2.5e-05 1097:0 1098:0 1099:0 1100:2.5e-05 1101:0 1102:0 1103:0 1104:0 1105:5e-05 1106:0 1107:0 1108:0 1109:0 1110:0 1111:2.5e-05 1112:0 1113:0 1114:0 1115:0 1116:0 1117:0 1118:0 1119:0 1120:0 1121:0.00065 1122:0 1123:0 1124:5e-05 1125:2.5e-05 1126:0 1127:0 1128:2.5e-05 1129:0.0029 1130:0.003525 1131:0 1132:0.000925 1133:2.5e-05 1134:0 1135:5e-05 1136:0.000225 1137:2.5e-05 1138:0 1139:0 1140:0 1141:0 1142:0 1143:0 1144:0 1145:2.5e-05 1146:0 1147:0 1148:0 1149:2.5e-05 1150:0 1151:0 1152:2.5e-05 1153:2.5e-05 1154:0 1155:0 1156:2.5e-05 1157:0 1158:0 1159:0 1160:0 1161:0 1162:2.5e-05 1163:0 1164:0 1165:0 1166:0 1167:0 1168:0 1169:0.00015 1170:0 1171:2.5e-05 1172:0 1173:0.000675 1174:0 1175:0.001075 1176:0.0005 1177:0 1178:2.5e-05 1179:0 1180:0 1181:0 1182:0 1183:0 1184:0.00025 1185:0 1186:0 1187:0 1188:0 1189:0 1190:0 1191:0 1192:0 1193:0 1194:0 1195:0 1196:0.00015 1197:0 1198:0 1199:0 1200:0 1201:0 1202:0 1203:0 1204:0 1205:2.5e-05 1206:0 1207:0 1208:2.5e-05 1209:0 1210:2.5e-05 1211:0 1212:2.5e-05 1213:0 1214:2.5e-05 1215:0 1216:0.0001 1217:0.0003 1218:2.5e-05 1219:0 1220:2.5e-05 1221:0 1222:0 1223:0 1224:0 1225:0 1226:2.5e-05 1227:0 1228:0 1229:0 1230:0 1231:0 1232:0 1233:0.00115 1234:0 1235:0 1236:2.5e-05 1237:0.00205 1238:5e-05 1239:0.00025 1240:0.0002 1241:0 1242:2.5e-05 1243:0 1244:0 1245:0 1246:2.5e-05 1247:0 1248:0 1249:0.001575 1250:2.5e-05 1251:0 1252:2.5e-05 1253:2.5e-05 1254:0 1255:0 1256:0 1257:0.005025 1258:0.00185 1259:0 1260:0.0007 1261:5e-05 1262:0 1263:2.5e-05 1264:0.00025 1265:0.00555 1266:5e-05 1267:0 1268:0 1269:0.000875 1270:2.5e-05 1271:0.000275 1272:0.0002 1273:0.0013 1274:0.00055 1275:0 1276:0.000225 1277:0.0003 1278:0.00015 1279:5e-05 1280:0.000325 1281:0.00525 1282:2.5e-05 1283:0.000125 1284:0.0002 1285:2.5e-05 1286:0 1287:0.000225 1288:0.00105 1289:0.0001 1290:7.5e-05 1291:0 1292:0.000825 1293:0 1294:0 1295:0 1296:0.00115 1297:5e-05 1298:0 1299:2.5e-05 1300:2.5e-05 1301:0.00015 1302:0 1303:0.003225 1304:0.00375 1305:0 1306:0 1307:0 1308:0 1309:2.5e-05 1310:0 1311:0 1312:0.00055 1313:0 1314:0 1315:0 1316:0 1317:0 1318:0 1319:0 1320:0 1321:7.5e-05 1322:0.0006 1323:0 1324:0.0007 1325:0 1326:0 1327:0 1328:0.0003 1329:0 1330:0 1331:0 1332:0 1333:0 1334:0 1335:5e-05 1336:0 1337:0 1338:0 1339:0 1340:0 1341:0 1342:2.5e-05 1343:0 1344:0.000225 1345:0.00015 1346:0 1347:2.5e-05 1348:0 1349:0 1350:0 1351:0 1352:0 1353:2.5e-05 1354:2.5e-05 1355:0 1356:0 1357:0 1358:0 1359:0 1360:0 1361:0 1362:0 1363:0 1364:0 1365:2.5e-05 1366:0 1367:0 1368:0 1369:0 1370:0 1371:0 1372:0 1373:0 1374:0 1375:0 1376:0 1377:0.0001 1378:0 1379:0 1380:2.5e-05 1381:2.5e-05 1382:0 1383:5e-05 1384:0 1385:0.001125 1386:0.00315 1387:0 1388:0.000275 1389:2.5e-05 1390:5e-05 1391:2.5e-05 1392:0.000125 1393:0 1394:0 1395:0 1396:0 1397:2.5e-05 1398:0 1399:0 1400:0 1401:0 1402:0 1403:0 1404:0 1405:2.5e-05 1406:0 1407:2.5e-05 1408:7.5e-05 1409:7.5e-05 1410:2.5e-05 1411:0 1412:0 1413:0 1414:0 1415:0 1416:0 1417:0 1418:0 1419:0 1420:2.5e-05 1421:0 1422:0 1423:0 1424:5e-05 1425:0.000375 1426:0 1427:0 1428:5e-05 1429:0.0019 1430:2.5e-05 1431:0.0102 1432:0.002275 1433:0 1434:0 1435:0 1436:0 1437:2.5e-05 1438:0 1439:0 1440:0.00035 1441:0 1442:0 1443:0 1444:0 1445:0 1446:0 1447:0 1448:0 1449:0 1450:0 1451:0 1452:2.5e-05 1453:0 1454:0 1455:0 1456:0 1457:0 1458:0 1459:0 1460:0 1461:0 1462:0 1463:0.000125 1464:2.5e-05 1465:0 1466:0 1467:0 1468:2.5e-05 1469:7.5e-05 1470:2.5e-05 1471:2.5e-05 1472:0.000175 1473:0.000275 1474:2.5e-05 1475:0 1476:5e-05 1477:0 1478:0 1479:0 1480:0 1481:0 1482:0 1483:0 1484:0 1485:0 1486:0 1487:0 1488:2.5e-05 1489:0.00185 1490:0 1491:0 1492:2.5e-05 1493:0.0062 1494:0.0001 1495:0.0011 1496:0.000375 1497:2.5e-05 1498:2.5e-05 1499:0 1500:2.5e-05 1501:0 1502:0 1503:0 1504:0.0001 1505:0.00115 1506:0 1507:0 1508:0 1509:0 1510:0 1511:0 1512:0 1513:0.003325 1514:0.001075 1515:0 1516:2.5e-05 1517:5e-05 1518:2.5e-05 1519:0 1520:5e-05 1521:0.00335 1522:2.5e-05 1523:0 1524:0 1525:0.000575 1526:0 1527:0.00035 1528:7.5e-05 1529:0.000675 1530:5e-05 1531:0 1532:0 1533:0.000675 1534:0.0003 1535:0.000175 1536:0.000275 1537:0.0052 1538:0 1539:0.000125 1540:0.000225 1541:0 1542:0 1543:0.000225 1544:0.00115 1545:7.5e-05 1546:0.000275 1547:0 1548:0.001075 1549:0 1550:0 1551:0 1552:0.001825 1553:0.000125 1554:0 1555:0 1556:0 1557:0.000225 1558:0 1559:0.002675 1560:0.00595 1561:0 1562:0 1563:0 1564:0 1565:0 1566:0 1567:0 1568:0.000975 1569:0 1570:0 1571:0 1572:0 1573:0 1574:0 1575:2.5e-05 1576:0 1577:0.0002 1578:0.000575 1579:0 1580:0.001275 1581:0 1582:0 1583:2.5e-05 1584:0.00075 1585:0 1586:0 1587:0 1588:0 1589:0 1590:0 1591:2.5e-05 1592:0 1593:0 1594:0 1595:0 1596:0 1597:2.5e-05 1598:2.5e-05 1599:2.5e-05 1600:0.00025 1601:0.00025 1602:2.5e-05 1603:2.5e-05 1604:0 1605:0 1606:0 1607:2.5e-05 1608:0 1609:0 1610:0 1611:0 1612:0 1613:0 1614:0 1615:0 1616:0 1617:0 1618:0 1619:0 1620:0 1621:0 1622:0 1623:0 1624:0 1625:0 1626:0 1627:0 1628:0 1629:0 1630:0 1631:0 1632:0 1633:0.0001 1634:0 1635:0 1636:2.5e-05 1637:0 1638:0 1639:0 1640:2.5e-05 1641:0.00035 1642:0.003525 1643:2.5e-05 1644:0.00055 1645:0 1646:2.5e-05 1647:2.5e-05 1648:0.0001 1649:0 1650:0 1651:0 1652:0 1653:0 1654:0 1655:0 1656:0 1657:0 1658:0 1659:0 1660:0 1661:0 1662:2.5e-05 1663:0 1664:5e-05 1665:0 1666:0 1667:5e-05 1668:0 1669:0 1670:0 1671:0 1672:0 1673:0 1674:0 1675:0 1676:0 1677:0 1678:0 1679:0 1680:0 1681:0.00015 1682:2.5e-05 1683:5e-05 1684:0 1685:0.00155 1686:0 1687:0.014625 1688:0.00315 1689:2.5e-05 1690:2.5e-05 1691:0 1692:0 1693:0 1694:0 1695:0 1696:0.000375 1697:0 1698:0 1699:0 1700:0 1701:0 1702:0 1703:0 1704:0 1705:0 1706:0 1707:0 1708:0 1709:0 1710:0 1711:0 1712:0 1713:0 1714:0 1715:0 1716:0 1717:0 1718:0 1719:7.5e-05 1720:5e-05 1721:0 1722:2.5e-05 1723:0 1724:0 1725:2.5e-05 1726:0 1727:0 1728:0.0003 1729:0.000125 1730:0 1731:0 1732:0 1733:0 1734:0 1735:0 1736:0 1737:0 1738:0 1739:0 1740:2.5e-05 1741:0 1742:0 1743:0 1744:0 1745:0.001375 1746:0 1747:0 1748:0 1749:0.003275 1750:2.5e-05 1751:0.0019 1752:0.000125 1753:0 1754:2.5e-05 1755:0 1756:0 1757:0 1758:0 1759:0 1760:2.5e-05 1761:0.000325 1762:0 1763:0 1764:0 1765:2.5e-05 1766:0 1767:0 1768:0 1769:0.00085 1770:0.0005 1771:0 1772:2.5e-05 1773:2.5e-05 1774:0 1775:0 1776:0 1777:0.00215 1778:0 1779:0 1780:0 1781:0.00145 1782:0 1783:0.000275 1784:7.5e-05 1785:0.00025 1786:5e-05 1787:0 1788:0 1789:0.00025 1790:0.0001 1791:5e-05 1792:0.000225 1793:0.0053 1794:2.5e-05 1795:0.00025 1796:0.0002 1797:5e-05 1798:0 1799:0.000375 1800:0.00175 1801:0.00025 1802:0.000225 1803:0 1804:0.001025 1805:0 1806:0 1807:0 1808:0.005625 1809:0.00015 1810:2.5e-05 1811:2.5e-05 1812:0 1813:0.000275 1814:0 1815:0.00115 1816:0.0082 1817:2.5e-05 1818:5e-05 1819:0 1820:0 1821:0 1822:5e-05 1823:0 1824:0.001875 1825:0 1826:0 1827:2.5e-05 1828:0 1829:0 1830:0 1831:2.5e-05 1832:0 1833:0.000175 1834:0.00045 1835:5e-05 1836:0.00165 1837:0 1838:0 1839:0 1840:0.000925 1841:0 1842:0 1843:0 1844:0 1845:0 1846:0 1847:2.5e-05 1848:2.5e-05 1849:2.5e-05 1850:0 1851:0 1852:0 1853:0 1854:2.5e-05 1855:0 1856:0.000175 1857:0.000125 1858:0 1859:2.5e-05 1860:0 1861:2.5e-05 1862:0 1863:0 1864:0 1865:0 1866:0 1867:0 1868:0 1869:0 1870:0 1871:0 1872:0 1873:2.5e-05 1874:0 1875:0 1876:0 1877:0 1878:0 1879:0 1880:2.5e-05 1881:0 1882:0 1883:0 1884:0 1885:0 1886:0 1887:0 1888:0 1889:0.0001 1890:0 1891:2.5e-05 1892:0 1893:0 1894:0 1895:2.5e-05 1896:0 1897:0.0012 1898:0.0019 1899:2.5e-05 1900:0.000475 1901:0 1902:2.5e-05 1903:2.5e-05 1904:0.000275 1905:0 1906:0 1907:0 1908:0 1909:0 1910:0 1911:0 1912:0 1913:0 1914:0 1915:0 1916:0 1917:0 1918:0 1919:0 1920:2.5e-05 1921:2.5e-05 1922:0 1923:0 1924:2.5e-05 1925:0 1926:0 1927:0 1928:0 1929:0 1930:2.5e-05 1931:0 1932:0 1933:0 1934:0 1935:0 1936:0 1937:0.00015 1938:2.5e-05 1939:0 1940:2.5e-05 1941:0.00035 1942:0 1943:0.00195 1944:0.001075 1945:0 1946:2.5e-05 1947:0 1948:2.5e-05 1949:0 1950:0 1951:0 1952:0.00015 1953:0 1954:0 1955:0 1956:0 1957:0 1958:0 1959:0 1960:0 1961:0 1962:0 1963:0 1964:0 1965:0 1966:0 1967:0 1968:0 1969:0 1970:0 1971:0 1972:0 1973:0 1974:0 1975:0 1976:2.5e-05 1977:0 1978:0 1979:0 1980:0 1981:0 1982:2.5e-05 1983:0 1984:7.5e-05 1985:0.0002 1986:2.5e-05 1987:0 1988:0 1989:0 1990:0 1991:0 1992:2.5e-05 1993:5e-05 1994:2.5e-05 1995:0 1996:2.5e-05 1997:0 1998:0 1999:0 2000:0 2001:0.000725 2002:0 2003:0 2004:0 2005:0.0008 2006:0 2007:0.000325 2008:0.000125 2009:0 2010:2.5e-05 2011:0 2012:0 2013:0 2014:0 2015:0 2016:0 2017:0.0012 2018:0 2019:0 2020:0 2021:0 2022:0 2023:0 2024:0 2025:0.013475 2026:0.001775 2027:0 2028:0.00015 2029:2.5e-05 2030:2.5e-05 2031:0 2032:0.00015 2033:0.00215 2034:5e-05 2035:0 2036:2.5e-05 2037:0.00035 2038:0 2039:0.0002 2040:0.0001 2041:0.0011 2042:7.5e-05 2043:0 2044:2.5e-05 2045:0.000175 2046:2.5e-05 2047:0.0001 2048:0.0002 2049:0.005125 2050:2.5e-05 2051:0.00015 2052:0.000275 2053:2.5e-05 2054:0 2055:0.000225 2056:0.0011 2057:5e-05 2058:2.5e-05 2059:2.5e-05 2060:0.000975 2061:0 2062:0 2063:2.5e-05 2064:0.00385 2065:2.5e-05 2066:0 2067:0 2068:0 2069:0.00015 2070:0 2071:0.001325 2072:0.005575 2073:0 2074:0 2075:0 2076:0 2077:2.5e-05 2078:0 2079:0 2080:0.000875 2081:5e-05 2082:0 2083:0 2084:0 2085:0 2086:0 2087:0 2088:0 2089:0.000225 2090:0.000825 2091:0 2092:0.00325 2093:0 2094:0 2095:0 2096:0.00065 2097:0 2098:0 2099:0 2100:0 2101:0 2102:0 2103:0 2104:7.5e-05 2105:0 2106:0 2107:0 2108:0 2109:5e-05 2110:0 2111:2.5e-05 2112:0.000125 2113:0.00025 2114:0 2115:7.5e-05 2116:0 2117:0 2118:0 2119:0 2120:0 2121:0 2122:2.5e-05 2123:0 2124:2.5e-05 2125:0 2126:0 2127:0 2128:0 2129:2.5e-05 2130:0 2131:0 2132:0 2133:0 2134:0 2135:0 2136:0 2137:0 2138:0 2139:0 2140:0 2141:0 2142:0 2143:0 2144:0 2145:0.000575 2146:0 2147:0 2148:2.5e-05 2149:0 2150:0 2151:0 2152:0 2153:0.001625 2154:0.001675 2155:0 2156:0.0005 2157:2.5e-05 2158:0 2159:0 2160:5e-05 2161:0 2162:0 2163:0 2164:0 2165:0 2166:0 2167:0 2168:0 2169:0 2170:0 2171:0 2172:0 2173:0 2174:0 2175:0 2176:0 2177:5e-05 2178:0 2179:0 2180:2.5e-05 2181:0 2182:0 2183:0 2184:2.5e-05 2185:0 2186:0 2187:0 2188:0 2189:0 2190:0 2191:0 2192:5e-05 2193:0.000125 2194:0 2195:2.5e-05 2196:0 2197:0.001175 2198:0 2199:0.002575 2200:0.00065 2201:0 2202:0 2203:0 2204:0 2205:2.5e-05 2206:0 2207:0 2208:0.000175 2209:0 2210:0 2211:0 2212:0 2213:0 2214:0 2215:0 2216:0 2217:0 2218:0 2219:0 2220:5e-05 2221:0 2222:0 2223:0 2224:0 2225:0 2226:0 2227:0 2228:0 2229:0 2230:0 2231:2.5e-05 2232:2.5e-05 2233:0 2234:0 2235:0 2236:0 2237:0 2238:2.5e-05 2239:0 2240:5e-05 2241:0.00045 2242:0 2243:0 2244:0 2245:0 2246:0 2247:0 2248:0 2249:0 2250:0 2251:0 2252:2.5e-05 2253:0 2254:0 2255:0 2256:5e-05 2257:0.00155 2258:2.5e-05 2259:0 2260:0 2261:0.0038 2262:5e-05 2263:0.000675 2264:0.000125 2265:0 2266:5e-05 2267:0 2268:0 2269:0 2270:0 2271:0 2272:0.00015 2273:0.0014 2274:2.5e-05 2275:0 2276:2.5e-05 2277:0 2278:0 2279:0 2280:2.5e-05 2281:0.00765 2282:0.0009 2283:0 2284:0.000325 2285:2.5e-05 2286:2.5e-05 2287:5e-05 2288:0.000275 2289:0.0053 2290:5e-05 2291:0 2292:2.5e-05 2293:0.001275 2294:2.5e-05 2295:0.000325 2296:0.00035 2297:0.001225 2298:0.0002 2299:0 2300:2.5e-05 2301:0.000425 2302:0.00015 2303:0.000125 2304:0.00025 2305:0.00515 2306:0 2307:2.5e-05 2308:0.0002 2309:0 2310:0 2311:0.000175 2312:0.000175 2313:0.000175 2314:5e-05 2315:0 2316:0.000525 2317:0 2318:0 2319:0 2320:0.00015 2321:7.5e-05 2322:0 2323:0 2324:0 2325:0.000125 2326:0 2327:0.001975 2328:0.0042 2329:0 2330:0 2331:0 2332:0 2333:0 2334:0 2335:0 2336:0.0001 2337:2.5e-05 2338:0 2339:2.5e-05 2340:0 2341:0 2342:0 2343:0 2344:0 2345:0.000125 2346:0.000225 2347:0 2348:0.000175 2349:0 2350:0 2351:0 2352:0.00025 2353:0 2354:0 2355:0 2356:0 2357:0 2358:0 2359:7.5e-05 2360:7.5e-05 2361:2.5e-05 2362:0 2363:0 2364:0 2365:0 2366:0 2367:2.5e-05 2368:0.00015 2369:7.5e-05 2370:0 2371:0 2372:0 2373:0 2374:0 2375:0 2376:0 2377:0 2378:0 2379:0 2380:0 2381:0 2382:0 2383:0 2384:0 2385:2.5e-05 2386:0 2387:0 2388:0 2389:5e-05 2390:0 2391:0 2392:0 2393:0 2394:0 2395:0 2396:0 2397:0 2398:0 2399:0 2400:0 2401:0.000175 2402:0 2403:2.5e-05 2404:0 2405:2.5e-05 2406:0 2407:2.5e-05 2408:0 2409:0.001725 2410:0.001225 2411:0 2412:0.000225 2413:5e-05 2414:0 2415:2.5e-05 2416:5e-05 2417:0 2418:0 2419:0 2420:0 2421:2.5e-05 2422:0 2423:2.5e-05 2424:5e-05 2425:0 2426:0 2427:0 2428:0 2429:0 2430:0 2431:0 2432:2.5e-05 2433:5e-05 2434:0 2435:0 2436:0 2437:0 2438:0 2439:0 2440:0 2441:0 2442:5e-05 2443:0 2444:0 2445:0 2446:0 2447:0 2448:0 2449:0.000275 2450:0 2451:0 2452:2.5e-05 2453:0.001475 2454:0 2455:0.005925 2456:0.001375 2457:2.5e-05 2458:2.5e-05 2459:0 2460:0 2461:0 2462:0 2463:0 2464:0.0001 2465:0 2466:0 2467:0 2468:0 2469:0 2470:0 2471:0 2472:0 2473:0 2474:5e-05 2475:0 2476:0 2477:0 2478:0 2479:2.5e-05 2480:2.5e-05 2481:0 2482:0 2483:0 2484:0 2485:5e-05 2486:0 2487:2.5e-05 2488:0 2489:0 2490:0 2491:0 2492:0 2493:0 2494:0 2495:2.5e-05 2496:5e-05 2497:0.000175 2498:0 2499:0 2500:0 2501:0 2502:0 2503:0 2504:0 2505:2.5e-05 2506:2.5e-05 2507:0 2508:0 2509:0 2510:0 2511:0 2512:2.5e-05 2513:0.0025 2514:2.5e-05 2515:0 2516:2.5e-05 2517:0.0041 2518:0 2519:0.000575 2520:0.0003 2521:2.5e-05 2522:0 2523:0 2524:0 2525:0 2526:2.5e-05 2527:0 2528:2.5e-05 2529:0.00215 2530:0 2531:0 2532:0 2533:0 2534:0 2535:0 2536:2.5e-05 2537:0.010875 2538:0.0017 2539:0 2540:7.5e-05 2541:0.000225 2542:2.5e-05 2543:2.5e-05 2544:0.0001 2545:0.00655 2546:2.5e-05 2547:0 2548:0 2549:0.001225 2550:0 2551:0.0007 2552:0.0004 2553:0.0015 2554:0.00015 2555:0 2556:2.5e-05 2557:0.0004 2558:0.000225 2559:0.00025 2560:0.000325 2561:0.0051 2562:5e-05 2563:0.0001 2564:0.000175 2565:0 2566:0 2567:0.00015 2568:0.000575 2569:0.0001 2570:0.0003 2571:0 2572:0.0008 2573:0 2574:0 2575:0 2576:0.00045 2577:5e-05 2578:0 2579:2.5e-05 2580:0 2581:0.00015 2582:0 2583:0.00175 2584:0.004475 2585:0 2586:0 2587:0 2588:2.5e-05 2589:0 2590:0 2591:0 2592:0.000225 2593:2.5e-05 2594:0 2595:0 2596:0 2597:0 2598:0 2599:0 2600:2.5e-05 2601:7.5e-05 2602:0.0006 2603:0 2604:0.0011 2605:0 2606:2.5e-05 2607:0 2608:0.000375 2609:0 2610:0 2611:0 2612:0 2613:0 2614:0 2615:0 2616:2.5e-05 2617:2.5e-05 2618:0 2619:0 2620:0 2621:7.5e-05 2622:0 2623:0 2624:0.0003 2625:0.0001 2626:0 2627:0 2628:0 2629:0 2630:0 2631:2.5e-05 2632:0 2633:2.5e-05 2634:0 2635:0 2636:2.5e-05 2637:0 2638:0 2639:0 2640:0 2641:0 2642:0 2643:0 2644:0 2645:0 2646:0 2647:0 2648:0 2649:0 2650:0 2651:0 2652:0 2653:0 2654:0 2655:0 2656:0 2657:0.000125 2658:0 2659:0 2660:0 2661:2.5e-05 2662:0 2663:0 2664:0 2665:0.001475 2666:0.005025 2667:0 2668:0.000525 2669:0 2670:5e-05 2671:2.5e-05 2672:0.0002 2673:2.5e-05 2674:0 2675:0 2676:0 2677:0 2678:0 2679:0 2680:2.5e-05 2681:0 2682:0 2683:0 2684:0 2685:2.5e-05 2686:5e-05 2687:0 2688:0.000125 2689:2.5e-05 2690:2.5e-05 2691:0 2692:0 2693:0 2694:0 2695:0 2696:0 2697:0 2698:5e-05 2699:0 2700:0 2701:0 2702:0 2703:0 2704:0 2705:0.000325 2706:0 2707:0 2708:7.5e-05 2709:0.00115 2710:0 2711:0.00695 2712:0.001775 2713:0 2714:0 2715:0 2716:0 2717:2.5e-05 2718:0 2719:0 2720:0.00015 2721:0 2722:0 2723:0 2724:0 2725:0 2726:0 2727:0 2728:0 2729:0 2730:0 2731:0 2732:0 2733:0 2734:0 2735:0 2736:0 2737:0 2738:0 2739:0 2740:0 2741:0 2742:0 2743:0.0001 2744:7.5e-05 2745:0 2746:0 2747:0 2748:0 2749:2.5e-05 2750:0 2751:2.5e-05 2752:0.000125 2753:0.0005 2754:0 2755:2.5e-05 2756:0 2757:0 2758:0 2759:0 2760:2.5e-05 2761:2.5e-05 2762:0 2763:0 2764:0 2765:0 2766:0 2767:0 2768:0 2769:0.001625 2770:2.5e-05 2771:0 2772:0 2773:0.00535 2774:0 2775:0.001425 2776:0.0001 2777:2.5e-05 2778:0 2779:0 2780:0 2781:0 2782:0 2783:0 2784:0 2785:0.00085 2786:0 2787:2.5e-05 2788:0 2789:0 2790:0 2791:0 2792:0 2793:0.007225 2794:0.0014 2795:0 2796:0.0001 2797:5e-05 2798:0 2799:0 2800:0.0001 2801:0.003625 2802:0 2803:0 2804:0 2805:0.001675 2806:0 2807:0.0004 2808:0.0002 2809:0.000775 2810:5e-05 2811:0 2812:0 2813:0.000375 2814:0.00015 2815:0.000125 2816:0.000325 2817:0.0051 2818:0 2819:2.5e-05 2820:0.000125 2821:0 2822:0 2823:0.0006 2824:0.002275 2825:0.000275 2826:7.5e-05 2827:0 2828:0.00045 2829:0 2830:0 2831:0 2832:0.0125 2833:0.00035 2834:0 2835:0 2836:2.5e-05 2837:0.0002 2838:0 2839:0.00145 2840:0.021025 2841:7.5e-05 2842:0 2843:0 2844:0 2845:0 2846:0 2847:0 2848:0.0026 2849:0 2850:0 2851:0 2852:0 2853:0 2854:0 2855:0 2856:0 2857:0.00035 2858:0.0001 2859:0 2860:0.000575 2861:0 2862:0 2863:0 2864:0.000225 2865:0 2866:0 2867:0 2868:0 2869:0 2870:0 2871:5e-05 2872:2.5e-05 2873:0 2874:0 2875:0 2876:0 2877:0 2878:0 2879:0 2880:0.000125 2881:0.0001 2882:0 2883:2.5e-05 2884:0 2885:0 2886:0 2887:0 2888:5e-05 2889:0 2890:0 2891:0 2892:0 2893:0 2894:0 2895:0 2896:0 2897:0 2898:0 2899:0 2900:0 2901:0 2902:0 2903:0 2904:0 2905:0 2906:0 2907:0 2908:0 2909:0 2910:0 2911:0 2912:0 2913:2.5e-05 2914:0 2915:0 2916:0 2917:0 2918:0 2919:2.5e-05 2920:0 2921:0.000475 2922:0.000975 2923:0 2924:0.0001 2925:2.5e-05 2926:5e-05 2927:0 2928:0.00015 2929:2.5e-05 2930:0 2931:0 2932:0 2933:0 2934:0 2935:2.5e-05 2936:2.5e-05 2937:0 2938:0 2939:0 2940:0 2941:5e-05 2942:0 2943:0 2944:7.5e-05 2945:0 2946:2.5e-05 2947:0 2948:0 2949:0 2950:0 2951:0 2952:0 2953:0 2954:0 2955:0 2956:0 2957:0 2958:0 2959:0 2960:0 2961:0.000175 2962:0 2963:0 2964:2.5e-05 2965:0.00015 2966:0 2967:0.00355 2968:0.001475 2969:0 2970:0 2971:0 2972:0 2973:0 2974:0 2975:0 2976:0.000125 2977:0 2978:0 2979:0 2980:0 2981:0 2982:0 2983:0 2984:0 2985:0 2986:0 2987:0 2988:0 2989:0 2990:0 2991:0 2992:0 2993:0 2994:0 2995:0 2996:0 2997:0 2998:0 2999:2.5e-05 3000:5e-05 3001:0 3002:0 3003:0 3004:0 3005:0 3006:0 3007:0 3008:0 3009:0.00015 3010:0 3011:0 3012:0 3013:0 3014:0 3015:0 3016:0 3017:0 3018:0 3019:0 3020:0 3021:0 3022:0 3023:0 3024:0 3025:0.000375 3026:0 3027:0 3028:0 3029:0.0009 3030:0 3031:0.000525 3032:5e-05 3033:0 3034:0 3035:0 3036:0 3037:0 3038:0 3039:0 3040:0 3041:0.000225 3042:0 3043:0 3044:0 3045:0 3046:0 3047:0 3048:0 3049:0.0019 3050:0.000275 3051:0 3052:0 3053:2.5e-05 3054:0 3055:0 3056:7.5e-05 3057:0.000575 3058:0 3059:0 3060:0 3061:0.000425 3062:0 3063:0.0001 3064:2.5e-05 3065:0.000175 3066:0 3067:0 3068:0 3069:0.000125 3070:0 3071:7.5e-05 3072:0.0001 3073:0.00535 3074:0.0001 3075:0.00035 3076:0.000775 3077:0 3078:0 3079:0.000325 3080:0.00195 3081:0.00045 3082:0.0001 3083:0 3084:0.001725 3085:0 3086:0 3087:0 3088:0.00325 3089:0.000375 3090:0 3091:2.5e-05 3092:0 3093:0.00015 3094:0 3095:0.002775 3096:0.005525 3097:5e-05 3098:0 3099:0 3100:2.5e-05 3101:2.5e-05 3102:0 3103:0 3104:0.002 3105:2.5e-05 3106:0 3107:0 3108:0 3109:0 3110:0 3111:2.5e-05 3112:0 3113:0.000275 3114:0.0008 3115:0 3116:0.00345 3117:2.5e-05 3118:0 3119:0 3120:0.001825 3121:0 3122:0 3123:0 3124:0 3125:0 3126:0 3127:0 3128:0 3129:2.5e-05 3130:0 3131:0 3132:0 3133:2.5e-05 3134:0 3135:0 3136:0.000575 3137:0.00025 3138:0 3139:7.5e-05 3140:0 3141:0 3142:0 3143:0 3144:0 3145:0 3146:0.0001 3147:0 3148:0 3149:0 3150:0 3151:0 3152:0 3153:0 3154:0 3155:0 3156:0 3157:0 3158:0 3159:0 3160:0 3161:0 3162:0 3163:0 3164:0 3165:0 3166:0 3167:0 3168:0 3169:0.000175 3170:0 3171:2.5e-05 3172:0 3173:2.5e-05 3174:0 3175:2.5e-05 3176:2.5e-05 3177:0.000625 3178:0.001275 3179:5e-05 3180:0.00075 3181:0 3182:0 3183:0 3184:0.0003 3185:0 3186:0 3187:0 3188:0 3189:5e-05 3190:0 3191:0 3192:0 3193:2.5e-05 3194:0 3195:0 3196:0 3197:0 3198:0 3199:0 3200:0 3201:2.5e-05 3202:0 3203:5e-05 3204:5e-05 3205:0 3206:0 3207:2.5e-05 3208:0 3209:0 3210:0 3211:0 3212:7.5e-05 3213:0 3214:0 3215:0 3216:0 3217:0.00055 3218:2.5e-05 3219:5e-05 3220:2.5e-05 3221:0.0013 3222:0 3223:0.0077 3224:0.002925 3225:0 3226:0 3227:0 3228:0 3229:2.5e-05 3230:0 3231:0 3232:0.0004 3233:0 3234:0 3235:0 3236:0 3237:0 3238:0 3239:0 3240:0 3241:0 3242:0 3243:0 3244:0 3245:0 3246:0 3247:0 3248:0 3249:0 3250:0 3251:0 3252:0 3253:0 3254:0 3255:0 3256:0 3257:2.5e-05 3258:0 3259:0 3260:0 3261:2.5e-05 3262:5e-05 3263:0 3264:0.00025 3265:0.0002 3266:0 3267:2.5e-05 3268:0 3269:0 3270:0 3271:2.5e-05 3272:0 3273:0 3274:0 3275:0 3276:5e-05 3277:0 3278:0 3279:0 3280:0 3281:0.000725 3282:0 3283:0 3284:5e-05 3285:0.00365 3286:2.5e-05 3287:0.0017 3288:0.000225 3289:0 3290:5e-05 3291:0 3292:0 3293:0 3294:0 3295:0 3296:0 3297:0.000525 3298:0 3299:2.5e-05 3300:2.5e-05 3301:2.5e-05 3302:0 3303:0 3304:0 3305:0.00115 3306:0.00065 3307:0 3308:0.0001 3309:0 3310:0 3311:0 3312:0.000125 3313:0.00095 3314:0 3315:0 3316:0 3317:0.000925 3318:0 3319:2.5e-05 3320:0.000125 3321:0.000525 3322:0.000175 3323:0 3324:0 3325:0.000175 3326:0.000125 3327:0 3328:0.0004 3329:0.005125 3330:2.5e-05 3331:5e-05 3332:0.00015 3333:5e-05 3334:0 3335:0.000375 3336:0.003 3337:0.0004 3338:7.5e-05 3339:0 3340:0.001425 3341:0 3342:0 3343:0 3344:0.006275 3345:0.000325 3346:2.5e-05 3347:2.5e-05 3348:0 3349:0.000125 3350:0 3351:0.00345 3352:0.01765 3353:0.000125 3354:0 3355:0 3356:0 3357:0 3358:0 3359:0 3360:0.0022 3361:0 3362:0 3363:0 3364:0 3365:0 3366:0 3367:0 3368:0 3369:0.00015 3370:0.0002 3371:0 3372:0.001475 3373:0 3374:0 3375:0 3376:0.0009 3377:0 3378:0 3379:0 3380:0 3381:0 3382:0 3383:0 3384:0.0001 3385:2.5e-05 3386:0 3387:0 3388:0 3389:0 3390:2.5e-05 3391:0 3392:0.000125 3393:2.5e-05 3394:0 3395:0 3396:0 3397:0 3398:0 3399:0 3400:2.5e-05 3401:2.5e-05 3402:2.5e-05 3403:0 3404:0 3405:0 3406:0 3407:0 3408:0 3409:0 3410:0 3411:0 3412:0 3413:2.5e-05 3414:0 3415:2.5e-05 3416:0 3417:0 3418:0 3419:0 3420:0 3421:0 3422:0 3423:0 3424:0 3425:0 3426:0 3427:0 3428:0 3429:0 3430:0 3431:0 3432:0 3433:0.0001 3434:0.000425 3435:2.5e-05 3436:0.000175 3437:0 3438:0 3439:0 3440:0.000125 3441:0 3442:0 3443:0 3444:0 3445:0 3446:0 3447:0 3448:0 3449:0 3450:0 3451:0 3452:0 3453:0 3454:0 3455:0 3456:5e-05 3457:5e-05 3458:0 3459:0 3460:0 3461:0 3462:0 3463:0 3464:2.5e-05 3465:0 3466:2.5e-05 3467:0 3468:0 3469:0 3470:0 3471:0 3472:2.5e-05 3473:0.0002 3474:0 3475:2.5e-05 3476:2.5e-05 3477:0.0004 3478:2.5e-05 3479:0.0074 3480:0.003575 3481:0 3482:0 3483:0 3484:5e-05 3485:0 3486:0 3487:0 3488:0.00025 3489:0 3490:0 